svm_type c_svc
kernel_type rbf
gamma 0.5
nr_class 2
total_sv 3075
rho 0.358711
label 1 -1
probA -4.10567
probB -0.51464
nr_sv 1089 1986
SV
0.8740429212536084 4:0.333333 5:0.444444 6:0.333333 7:0.111111 8:0.111111 9:0.444444 10:1 11:0.5 12:0.25 13:0.25 14:0.375 15:0.5 16:0.25 17:0.375 18:0.375 19:0.375 20:0.625 22:0.375 23:0.25 24:0.375 25:0.375 26:0.25 27:0.375 28:0.444444 29:0.333333 30:1 31:0.333333 32:0.777778 33:0.666667 35:0.666667 36:0.222222 37:0.888889 41:0.222222 42:0.111111 43:0.222222 44:0.444444 45:0.444444 46:0.111111 47:0.75 48:0.625 49:0.125 50:0.125 52:0.625 53:0.125 57:0.875 58:0.375 60:0.125 63:0.125 65:0.111111 66:0.222222 67:0.555556 68:0.222222 69:0.555556 70:0.555556 72:0.555556 73:0.333333 74:0.888889 75:0.736842 76:0.0434783 77:0.391304 78:0.391304 79:0.521739 80:0.0434783 81:0.391304 82:0.521739 83:0.521739 84:0.521739 85:0.304348 86:0.130435 87:0.521739 88:0.391304 89:0.521739 90:0.521739 91:0.391304 92:0.521739 93:0.541667 94:0.416667 95:0.875 96:0.416667 97:0.375 100:1 101:0.140625 102:0.658869 103:0.66362 104:0.615385 105:0.631124 106:0.686508 107:0.166667 108:0.25 109:0.5 110:1 
1.194463853887338 4:0.444444 5:0.222222 6:0.111111 7:0.444444 8:0.444444 9:1 10:0.857143 11:0.75 12:0.375 13:0.125 14:0.625 15:0.5 16:0.75 18:0.25 19:0.25 20:0.25 21:0.25 23:0.25 25:0.875 27:0.25 28:0.333333 29:0.888889 30:0.888889 31:0.666667 32:0.666667 35:0.666667 36:0.888889 37:0.777778 41:0.111111 42:0.333333 43:0.444444 44:0.111111 45:0.111111 46:0.555556 47:0.875 48:0.5 50:0.25 51:0.5 52:0.875 53:0.5 54:0.375 55:0.125 56:0.375 57:0.125 58:0.375 59:0.375 60:0.125 61:0.375 62:1 63:0.375 64:0.125 65:0.222222 66:0.888889 67:0.888889 68:0.888889 69:0.888889 72:0.888889 73:0.888889 74:0.555556 75:0.578947 76:0.347826 77:0.521739 78:0.26087 79:0.173913 80:0.130435 81:0.347826 82:0.130435 83:0.391304 84:0.478261 85:0.391304 86:0.478261 87:0.130435 88:0.391304 89:0.130435 90:0.826087 91:0.130435 92:0.391304 93:0.416667 94:0.666667 95:0.666667 96:0.333333 100:0.666667 101:0.046875 102:0.750487 103:0.765996 104:0.752508 105:0.759366 106:0.78631 107:0.5 109:0.75 110:1 
0.9369148172670894 1:0.555556 2:0.333333 3:0.444444 4:0.333333 5:0.222222 6:0.444444 7:0.333333 8:0.444444 9:0.333333 10:1 11:0.25 12:0.25 13:0.5 14:0.5 15:0.25 16:0.5 17:0.125 18:0.375 19:0.5 20:0.25 21:0.375 22:0.25 24:0.375 25:0.375 26:0.375 27:0.875 28:0.333333 29:0.444444 30:0.444444 31:0.333333 32:0.444444 35:0.444444 36:0.444444 37:0.666667 38:1 39:0.222222 40:0.333333 41:0.222222 42:0.333333 43:0.111111 44:0.444444 45:0.111111 46:0.222222 47:0.875 48:0.125 49:0.125 50:0.75 51:0.75 52:0.125 53:0.625 54:0.25 56:1 57:0.125 59:0.125 60:0.375 61:0.25 64:1 65:0.222222 66:0.111111 67:0.111111 68:0.222222 69:0.111111 72:0.111111 73:0.333333 74:0.666667 75:0.789474 76:0.391304 77:0.391304 78:0.0869565 79:0.0869565 80:0.391304 81:0.0434783 82:0.26087 83:0.521739 84:0.695652 85:0.391304 86:0.521739 87:0.391304 88:0.130435 89:0.608696 90:0.521739 91:0.521739 92:0.826087 93:0.416667 94:0.541667 95:0.541667 96:0.416667 100:1 101:0.171875 102:0.71345 103:0.707495 104:0.672241 105:0.60951 106:0.688492 107:0.5 108:0.25 109:0.25 110:1 
0.8910720332599625 1:0.666667 2:0.888889 3:0.555556 4:0.333333 5:0.444444 6:0.333333 7:0.666667 8:0.444444 9:0.444444 10:0.428571 12:0.375 13:0.25 14:0.25 15:0.125 16:0.375 17:0.375 18:0.375 19:0.375 20:0.875 22:0.375 23:0.375 24:0.125 25:0.125 26:0.375 28:0.444444 29:0.333333 30:0.444444 31:0.333333 32:0.111111 35:0.111111 36:0.888889 37:0.555556 38:0.888889 39:0.888889 40:0.555556 41:0.222222 42:0.111111 43:0.444444 44:0.555556 45:0.111111 46:0.111111 47:0.25 48:0.375 50:0.125 51:0.125 52:0.25 55:0.25 56:0.25 57:1 58:0.375 60:0.25 61:0.25 62:0.25 64:0.375 65:0.333333 66:0.444444 67:0.111111 68:0.222222 69:0.444444 72:0.444444 73:0.666667 74:0.888889 75:0.736842 76:0.130435 77:0.521739 78:0.391304 79:0.391304 80:0.26087 81:0.521739 82:0.521739 83:0.608696 84:0.608696 85:0.826087 86:0.130435 87:0.521739 88:0.608696 89:0.26087 90:0.26087 91:0.521739 92:0.130435 93:0.625 94:0.5 95:0.541667 96:0.416667 100:1 101:0.171875 102:0.500975 103:0.517367 104:0.558528 105:0.576369 106:0.537698 108:0.25 
0.7726613750844618 1:0.333333 2:0.888889 3:0.888889 4:0.111111 5:0.444444 6:0.222222 7:0.111111 8:0.111111 9:0.333333 10:1 11:0.25 12:0.375 15:0.125 17:0.25 18:0.125 20:0.5 21:0.125 22:0.375 23:0.125 24:0.125 26:0.375 27:0.75 28:0.444444 29:0.333333 30:0.333333 31:0.111111 32:0.666667 35:0.666667 36:0.888889 37:0.777778 38:0.444444 39:0.777778 40:0.777778 41:0.444444 42:0.111111 43:0.333333 44:0.444444 45:0.444444 46:0.444444 47:0.875 48:0.125 50:0.375 51:0.375 52:0.25 53:0.375 54:0.125 55:0.25 56:0.375 57:0.5 58:0.25 60:0.25 61:0.25 62:0.375 63:0.25 64:1 65:0.111111 66:0.222222 67:0.222222 68:0.444444 69:1 72:1 73:0.888889 74:0.888889 75:0.789474 76:0.391304 77:0.521739 78:0.130435 79:0.130435 80:0.26087 81:0.130435 82:0.391304 83:0.26087 84:0.130435 86:0.26087 87:0.521739 88:0.26087 89:0.26087 90:0.130435 91:0.608696 92:0.782609 93:0.541667 94:0.416667 95:0.416667 96:0.166667 100:1 101:0.15625 102:0.446394 103:0.480804 104:0.471572 105:0.495677 106:0.494048 108:0.25 109:0.25 110:1 
0.8989260305212954 1:1 2:0.222222 3:0.444444 4:0.333333 5:0.222222 6:0.111111 7:0.666667 8:0.888889 9:0.666667 10:0.571429 11:0.5 12:0.125 14:0.375 15:0.375 16:0.125 18:0.375 19:0.375 20:0.25 21:0.625 22:0.875 23:0.25 24:0.375 25:0.125 26:0.25 27:0.25 28:0.444444 29:0.333333 30:0.333333 31:0.333333 32:0.444444 35:0.444444 36:0.444444 37:0.888889 38:0.555556 39:0.333333 40:0.333333 41:0.222222 42:0.333333 43:0.444444 44:0.666667 45:0.555556 46:0.555556 47:0.5 48:0.625 49:0.25 50:0.375 53:0.25 54:0.375 57:0.125 58:1 59:1 60:0.375 62:0.25 63:0.375 64:0.125 65:0.111111 66:0.222222 67:0.444444 68:0.222222 69:0.111111 72:0.111111 73:0.111111 74:1 76:0.0434783 77:0.26087 78:0.130435 79:0.521739 80:0.521739 81:0.26087 82:0.130435 83:0.521739 84:0.521739 85:0.391304 86:0.73913 87:0.826087 88:0.478261 89:0.521739 90:0.26087 91:0.478261 92:0.391304 93:0.541667 94:0.416667 95:0.5 96:0.416667 101:0.171875 102:0.610136 103:0.634369 104:0.665552 105:0.62536 106:0.577381 108:0.25 109:1 110:1 
0.997315783276019 1:0.444444 2:0.333333 3:0.222222 4:0.444444 5:0.444444 6:0.333333 7:0.333333 8:0.444444 9:0.444444 10:0.714286 11:0.625 12:0.375 14:0.25 15:0.875 17:0.25 18:0.25 19:0.375 20:0.75 21:0.375 22:0.625 23:0.125 25:0.25 26:0.375 28:0.111111 29:0.777778 30:0.888889 31:0.333333 32:0.888889 35:0.888889 36:0.888889 37:0.444444 38:0.111111 39:0.222222 40:0.333333 41:0.111111 42:0.111111 43:0.222222 44:0.444444 45:0.111111 46:0.111111 47:0.625 48:0.875 50:0.375 51:0.125 52:0.625 53:0.375 54:0.125 55:0.125 57:0.75 58:0.25 59:0.5 60:0.25 61:0.375 62:0.375 64:0.375 65:0.444444 66:0.888889 67:0.777778 68:0.444444 69:0.888889 72:0.888889 73:0.888889 74:0.111111 75:0.263158 76:0.304348 77:0.521739 78:0.130435 79:0.391304 80:0.565217 81:0.130435 82:0.391304 83:0.391304 84:0.521739 85:0.434783 86:0.608696 87:0.173913 88:0.26087 89:0.130435 90:0.478261 91:0.521739 92:0.130435 93:0.166667 94:0.5 95:0.625 96:0.5 100:0.333333 101:0.140625 102:0.795322 103:0.808044 104:0.777592 105:0.685879 106:0.827381 107:0.166667 108:0.25 109:0.5 110:1 
1.284289633453874 1:0.444444 2:0.888889 3:0.777778 4:0.333333 5:0.333333 6:0.222222 7:0.333333 8:0.888889 9:0.222222 10:0.428571 11:0.25 12:0.375 13:0.625 14:0.875 15:0.25 16:0.125 17:0.125 18:0.125 19:1 20:0.25 21:0.125 22:0.5 23:0.875 24:0.75 25:0.125 26:0.125 27:0.375 28:0.333333 29:0.222222 30:0.222222 31:0.444444 32:0.222222 33:0.888889 35:0.888889 36:0.222222 37:0.444444 38:0.333333 39:0.777778 40:0.888889 41:0.222222 42:0.222222 43:0.333333 44:0.444444 45:0.666667 46:0.333333 48:0.125 49:0.25 50:0.875 51:0.625 52:0.125 53:0.25 54:0.25 55:0.25 56:0.875 57:0.125 58:0.25 59:1 60:1 61:0.75 62:0.25 63:0.25 65:0.222222 66:0.333333 67:0.333333 68:0.111111 69:0.333333 70:1 72:1 73:0.333333 74:0.111111 75:0.631579 76:0.391304 77:0.608696 78:0.304348 79:0.565217 80:0.391304 81:0.26087 82:0.26087 83:0.26087 84:1 85:0.391304 86:0.26087 87:0.695652 88:0.826087 89:0.434783 90:0.26087 91:0.26087 92:0.521739 93:0.416667 94:0.291667 95:0.291667 96:0.541667 97:0.291667 100:1 101:0.15625 102:0.434698 103:0.464351 104:0.461538 105:0.445245 106:0.496032 107:0.333333 108:0.25 109:0.25 
1.243896768920182 1:0.333333 2:1 3:1 4:0.555556 5:0.333333 6:0.111111 7:0.111111 8:0.333333 9:0.222222 10:0.571429 11:0.625 12:0.375 13:0.25 14:0.25 15:0.5 16:0.125 17:0.375 18:0.375 20:0.25 21:0.25 22:0.25 23:0.875 24:0.125 26:0.25 28:0.555556 29:0.777778 30:0.333333 31:0.222222 32:0.222222 35:0.222222 36:0.444444 37:0.777778 38:0.222222 39:0.666667 40:0.888889 41:0.777778 42:0.444444 43:0.444444 44:0.444444 45:0.222222 46:0.333333 47:1 48:0.5 50:0.125 51:0.125 52:1 53:0.25 55:0.25 56:0.375 57:0.125 58:0.125 59:0.125 60:0.875 61:0.25 62:0.375 63:0.125 64:0.375 65:0.666667 66:0.888889 67:0.222222 68:0.333333 69:0.333333 72:0.333333 73:0.333333 74:1 75:0.842105 76:0.173913 77:0.521739 78:0.391304 79:0.391304 80:0.695652 81:0.26087 82:0.521739 83:0.608696 84:0.130435 85:0.391304 86:0.391304 87:0.391304 88:0.652174 89:0.26087 90:0.130435 91:0.391304 92:0.130435 93:0.0833333 94:0.5 95:0.416667 96:0.291667 101:0.25 102:0.534113 103:0.541133 104:0.543478 105:0.592219 106:0.454365 107:0.166667 109:0.5 110:1 
1.266790488859884 1:0.333333 2:0.888889 3:0.777778 4:0.111111 5:0.444444 6:0.333333 7:0.111111 8:0.333333 9:0.666667 10:0.428571 11:0.25 12:0.25 13:0.125 15:0.25 16:0.375 17:1 18:0.25 19:0.375 21:0.375 22:0.875 23:0.25 24:0.375 25:0.375 27:0.25 28:0.222222 29:0.444444 30:0.333333 31:0.333333 32:0.444444 33:0.888889 35:0.888889 36:0.777778 37:0.555556 38:0.222222 39:0.777778 40:0.888889 41:0.444444 42:0.111111 43:0.444444 44:0.444444 45:0.222222 46:0.888889 47:0.25 48:0.375 49:0.125 50:0.25 51:0.375 52:0.125 54:0.5 55:0.125 56:0.25 57:0.375 59:1 60:0.125 63:0.375 64:0.125 65:0.333333 66:0.333333 67:0.222222 68:0.444444 69:0.111111 70:1 72:1 73:1 74:0.666667 75:0.736842 76:0.478261 77:0.391304 78:0.26087 79:0.130435 80:0.391304 81:0.521739 82:0.869565 83:0.391304 84:0.608696 85:0.130435 86:0.521739 87:0.826087 88:0.391304 89:0.521739 90:0.521739 91:0.130435 92:0.391304 93:0.291667 94:0.625 95:0.416667 96:0.5 97:0.541667 100:1 101:0.21875 102:0.500975 103:0.531993 104:0.536789 105:0.521614 106:0.549603 107:0.166667 109:0.25 
1.253344387953018 1:0.111111 2:0.444444 3:0.333333 4:0.333333 5:0.222222 6:0.111111 7:0.111111 8:0.333333 9:0.777778 10:0.571429 13:0.125 14:0.125 15:0.25 16:0.375 17:0.375 19:0.125 20:0.125 22:0.375 23:0.375 25:0.125 26:0.375 27:0.25 28:0.111111 29:0.333333 38:0.444444 39:0.111111 40:0.444444 41:0.222222 42:0.333333 43:0.444444 44:0.444444 45:0.222222 46:0.888889 47:0.625 48:0.375 49:0.375 50:0.25 51:0.25 52:0.375 55:0.375 56:0.25 57:0.25 58:0.375 61:0.375 62:0.25 64:0.375 65:0.444444 66:0.444444 75:0.0526316 76:0.130435 77:0.130435 78:0.26087 79:0.26087 80:0.478261 81:0.521739 82:0.521739 83:0.130435 84:0.26087 85:0.26087 86:0.130435 87:0.521739 88:0.521739 89:0.130435 90:0.26087 91:0.521739 92:0.478261 93:0.166667 94:0.5 101:0.03125 102:0.508772 103:0.510055 104:0.493311 105:0.461095 106:0.581349 109:0.5 110:1 
1.456294812480866 1:0.222222 2:0.222222 3:1 4:1 5:1 6:1 7:0.888889 8:0.666667 9:0.333333 10:0.428571 11:0.125 13:0.25 14:0.25 15:0.625 16:0.875 17:0.625 18:0.5 19:0.25 20:0.375 21:0.125 22:0.625 23:0.125 24:0.125 25:0.375 26:0.125 27:0.125 28:0.222222 29:0.333333 30:0.555556 31:0.888889 32:0.111111 35:0.111111 36:0.111111 37:0.111111 38:0.333333 39:0.333333 40:0.888889 41:0.888889 42:0.888889 43:0.888889 44:0.888889 45:0.888889 46:0.222222 47:0.25 48:0.25 49:0.375 50:0.125 51:0.125 52:1 53:1 54:1 55:1 56:0.125 58:0.25 59:0.875 60:0.25 61:0.25 62:0.25 63:0.25 64:0.25 65:0.333333 66:0.222222 67:0.666667 68:0.666667 69:0.444444 72:0.444444 73:0.444444 74:0.444444 75:0.736842 76:0.26087 77:0.130435 78:0.391304 79:0.391304 80:0.73913 81:0.826087 82:0.73913 83:0.695652 84:0.391304 85:0.521739 86:0.26087 87:0.304348 88:0.26087 89:0.26087 90:0.608696 91:0.26087 92:0.26087 93:0.291667 94:0.416667 95:0.0833333 96:0.583333 100:1 101:0.234375 102:0.499025 103:0.530165 104:0.570234 105:0.629683 106:0.605159 107:0.5 108:0.25 109:0.25 
1.309194941115534 1:0.777778 2:0.333333 3:0.111111 4:0.666667 5:0.222222 6:0.111111 7:0.444444 8:0.666667 9:0.333333 10:0.571429 11:0.75 12:0.25 14:0.625 15:0.125 16:0.375 17:0.25 18:0.125 19:0.25 20:0.25 21:0.25 23:0.125 26:0.75 27:0.5 28:0.888889 29:0.444444 30:0.222222 31:0.444444 32:0.444444 35:0.444444 36:0.333333 37:0.333333 38:0.555556 39:0.222222 40:0.444444 41:0.666667 42:0.333333 43:0.444444 44:0.111111 45:0.555556 46:0.222222 47:0.5 48:0.5 49:0.125 50:0.375 51:0.5 52:0.25 54:0.125 55:0.25 56:0.375 57:0.125 58:0.125 59:0.375 60:0.25 61:0.375 62:0.375 63:1 64:1 65:1 66:0.111111 67:0.333333 68:0.333333 69:0.111111 72:0.111111 73:0.222222 74:0.222222 76:0.347826 77:0.391304 78:0.130435 79:0.173913 80:0.26087 81:0.521739 82:0.391304 83:0.26087 84:0.478261 85:0.391304 86:0.391304 87:0.130435 88:0.26087 89:0.130435 90:0.130435 91:0.782609 92:0.695652 93:0.833333 94:0.541667 95:0.291667 96:0.625 101:0.171875 102:0.563353 103:0.590494 104:0.623746 105:0.632565 106:0.474206 107:0.166667 109:0.75 110:1 
0.6463197288233056 1:0.333333 2:0.333333 3:0.222222 4:0.444444 5:0.333333 6:0.444444 7:0.333333 8:0.111111 9:1 10:0.428571 11:0.375 12:0.375 13:0.125 16:0.25 17:0.125 18:1 19:0.625 20:0.5 21:0.25 22:0.25 23:0.25 24:0.25 25:0.25 26:0.625 27:0.25 28:0.444444 29:0.444444 30:0.444444 31:0.444444 32:0.444444 33:0.222222 35:0.222222 36:0.888889 37:0.555556 38:0.444444 39:0.444444 40:0.333333 41:0.111111 42:0.222222 43:0.111111 44:0.222222 45:0.444444 46:0.666667 47:0.25 50:0.25 51:0.375 52:0.375 53:0.125 54:0.25 55:0.5 56:0.75 57:0.5 58:0.125 59:0.125 60:0.375 61:0.125 62:0.125 63:0.5 64:0.125 65:0.333333 66:0.111111 67:0.111111 68:0.111111 69:0.111111 70:0.333333 72:0.333333 73:0.888889 74:0.555556 75:0.736842 76:0.521739 77:0.521739 78:0.26087 79:0.130435 80:0.130435 81:0.391304 82:0.26087 83:0.869565 84:0.26087 86:0.391304 87:0.391304 88:0.478261 89:0.391304 90:0.391304 91:0.173913 92:0.391304 93:0.625 94:0.541667 95:0.541667 96:0.541667 97:0.541667 100:1 101:0.125 102:0.582846 103:0.595978 104:0.558528 105:0.523055 106:0.543651 108:0.75 109:0.25 
0.3887233628583456 1:0.333333 2:0.666667 3:0.888889 4:0.333333 5:0.444444 6:0.333333 7:0.111111 8:0.666667 9:0.222222 10:0.142857 11:0.375 12:0.125 13:0.375 15:0.25 17:0.25 18:0.25 19:0.25 22:0.25 23:0.125 24:0.5 25:0.125 26:0.375 27:0.375 28:0.444444 29:0.222222 30:0.444444 31:0.777778 32:0.444444 35:0.444444 36:0.444444 37:0.777778 38:0.444444 39:0.666667 40:0.888889 41:0.222222 42:0.111111 43:0.444444 44:0.444444 45:0.555556 46:0.333333 47:0.25 49:0.25 51:0.375 52:0.375 53:0.375 54:0.375 55:0.125 56:0.125 57:0.375 58:0.375 59:0.125 60:0.25 61:0.625 62:0.25 65:0.111111 66:0.333333 67:0.111111 68:0.777778 69:0.111111 72:0.111111 73:0.111111 74:1 75:0.315789 76:0.521739 77:0.26087 78:0.521739 79:0.130435 80:0.478261 81:0.130435 82:0.478261 83:0.391304 84:0.391304 85:0.130435 86:0.130435 87:0.391304 88:0.26087 89:0.0434783 90:0.26087 91:0.521739 92:0.521739 93:0.541667 94:0.291667 95:0.541667 96:0.458333 100:0.333333 101:0.171875 102:0.352827 103:0.393053 104:0.444816 105:0.475504 106:0.454365 109:0.25 
1.166806310693656 4:0.333333 5:0.444444 6:0.333333 7:0.111111 8:0.222222 9:0.222222 10:0.142857 11:0.375 12:0.125 13:0.375 14:0.5 15:0.75 17:0.25 18:0.25 19:0.25 21:0.5 22:0.25 23:0.125 25:0.625 26:0.875 27:0.375 28:0.444444 29:0.222222 30:0.444444 31:1 32:0.777778 33:0.444444 35:0.444444 36:0.444444 37:0.777778 41:0.222222 42:0.111111 43:0.444444 44:0.444444 45:0.333333 46:0.333333 47:0.25 49:0.25 51:0.625 52:0.875 53:0.375 54:0.375 55:0.125 56:0.125 57:0.375 58:0.5 59:0.125 60:0.25 61:0.375 62:0.5 63:0.625 65:0.111111 66:0.333333 67:0.111111 68:0.555556 69:0.555556 70:0.555556 72:0.555556 73:0.333333 74:0.111111 75:0.315789 76:0.521739 77:0.26087 78:0.521739 79:0.0434783 80:0.478261 81:0.130435 82:0.478261 83:0.391304 84:0.391304 85:0.130435 87:0.391304 88:0.26087 89:0.130435 90:0.173913 91:0.565217 92:0.521739 93:0.541667 94:0.291667 95:0.541667 96:0.875 97:0.375 100:0.333333 101:0.140625 102:0.557505 103:0.553931 104:0.553512 105:0.576369 106:0.720238 107:0.333333 108:0.25 
0.8253737702358632 1:0.333333 2:0.222222 3:0.444444 4:0.333333 5:0.444444 6:0.333333 7:0.111111 8:1 9:1 10:0.714286 11:0.875 12:0.75 13:0.125 17:0.25 18:0.25 19:0.25 22:0.25 23:0.125 24:0.625 25:0.125 26:0.375 27:0.375 28:0.444444 29:0.222222 30:0.444444 31:0.777778 32:0.444444 35:0.444444 36:0.444444 37:0.777778 38:0.444444 39:0.333333 40:0.333333 41:0.222222 42:0.111111 43:0.444444 44:0.444444 45:0.555556 46:0.555556 47:0.75 48:0.875 49:0.75 50:0.25 51:0.375 52:0.375 53:0.375 54:0.125 55:0.125 56:0.125 57:0.375 58:0.375 59:0.125 60:0.25 61:0.875 62:0.25 65:0.111111 66:0.333333 67:0.111111 68:1 69:1 72:1 73:0.555556 74:0.111111 75:0.315789 76:0.652174 77:0.434783 78:0.26087 79:0.130435 80:0.130435 81:0.130435 82:0.391304 83:0.391304 84:0.391304 85:0.130435 86:0.130435 87:0.391304 88:0.26087 89:0.304348 90:0.26087 91:0.521739 92:0.521739 93:0.541667 94:0.291667 95:0.541667 96:0.791667 100:0.333333 101:0.171875 102:0.508772 103:0.539305 104:0.578595 105:0.550432 106:0.556746 107:0.166667 109:1 110:1 
1.585667239830513 1:0.888889 2:0.444444 3:0.444444 4:0.444444 5:0.111111 6:0.888889 7:0.444444 8:0.444444 9:0.444444 14:0.125 15:0.25 16:0.25 17:0.375 18:0.25 20:0.25 22:0.375 23:0.375 24:0.375 25:0.375 26:0.75 27:0.375 28:0.444444 29:0.888889 30:0.888889 31:0.777778 38:0.777778 39:0.333333 40:0.111111 41:0.333333 42:0.444444 43:0.666667 44:0.111111 45:0.333333 46:0.111111 47:0.375 48:0.375 49:0.375 50:0.375 51:0.25 52:0.375 53:0.125 54:0.25 55:0.125 56:0.375 57:0.125 58:0.375 63:0.75 65:0.333333 66:0.888889 67:0.666667 68:0.888889 75:0.157895 76:0.130435 77:0.130435 78:0.130435 79:0.26087 80:0.478261 81:0.391304 82:0.608696 83:0.391304 84:0.130435 85:0.391304 86:0.130435 87:0.521739 88:0.521739 89:0.521739 90:0.521739 91:0.434783 92:0.521739 93:0.625 94:0.666667 95:0.583333 96:0.5 101:0.046875 102:0.598441 103:0.606947 104:0.628763 105:0.658501 106:0.677183 
1.400302773027677 1:0.333333 2:0.888889 3:0.555556 4:0.555556 5:0.666667 6:0.666667 7:0.888889 8:0.888889 9:0.444444 10:0.285714 11:0.125 12:0.375 14:0.25 15:1 16:1 17:1 18:1 19:1 20:1 21:1 22:1 23:0.375 24:0.125 25:0.125 26:0.375 27:0.25 28:0.111111 29:0.222222 30:0.444444 31:0.222222 32:0.111111 33:1 34:1 35:0.222222 36:0.444444 37:0.333333 38:0.222222 39:1 40:1 41:0.888889 42:0.666667 43:0.888889 44:0.666667 45:0.888889 46:0.111111 47:0.125 48:0.25 49:0.25 50:0.375 51:0.375 52:0.875 53:0.875 54:0.5 55:0.875 56:0.5 57:0.625 58:0.875 59:0.875 60:0.25 61:0.25 62:0.25 64:0.125 65:0.444444 66:0.333333 67:0.333333 68:0.333333 69:0.444444 70:0.555556 71:0.777778 72:0.333333 73:0.111111 74:0.444444 75:0.473684 76:0.26087 77:0.608696 78:0.130435 79:0.478261 80:1 81:1 82:0.869565 83:1 84:0.869565 85:0.913043 86:1 87:1 88:0.608696 89:0.26087 90:0.26087 91:0.521739 92:0.391304 93:0.166667 94:0.291667 95:0.625 96:0.291667 97:0.166667 98:0.875 99:0.958333 100:0.666667 101:0.296875 102:0.434893 103:0.470018 104:0.515217 105:0.582277 106:0.460516 107:0.5 108:1 109:0.25 
0.8474292963998692 1:0.333333 2:0.444444 3:0.111111 4:0.111111 5:0.222222 6:0.111111 7:0.444444 8:0.222222 9:0.444444 10:0.428571 14:0.25 15:0.375 19:0.375 21:0.375 22:0.25 23:0.125 25:0.125 26:0.125 28:0.111111 29:0.111111 30:0.111111 31:0.444444 32:1 35:1 36:1 37:1 38:0.222222 39:0.111111 40:0.444444 41:0.444444 42:0.333333 43:0.444444 44:0.111111 45:0.333333 46:0.333333 48:0.375 49:0.375 50:0.375 51:0.125 53:0.375 54:0.375 55:0.375 57:0.375 59:0.125 60:0.25 61:0.375 62:0.25 63:0.25 64:0.375 65:0.444444 66:0.444444 67:0.444444 68:0.333333 69:0.555556 72:0.555556 73:0.666667 74:0.555556 75:0.631579 76:0.130435 77:0.130435 78:0.130435 79:0.391304 80:0.521739 81:0.130435 82:0.130435 83:0.130435 84:0.521739 85:0.130435 86:0.521739 87:0.391304 88:0.26087 89:0.130435 90:0.26087 91:0.26087 92:0.130435 93:0.166667 94:0.166667 95:0.166667 96:0.625 100:1 101:0.234375 102:0.403509 103:0.40585 104:0.394649 105:0.383285 106:0.513889 
1.304655970511544 1:0.333333 2:0.222222 3:0.333333 4:0.333333 5:0.777778 6:0.444444 7:0.333333 8:0.222222 9:0.666667 10:0.571429 11:0.25 12:0.25 13:0.125 15:0.125 16:0.25 17:0.25 18:0.375 19:0.25 20:0.375 21:0.125 22:0.5 23:0.25 24:0.125 25:1 26:1 27:1 28:1 29:0.111111 30:0.333333 31:0.333333 32:0.222222 33:0.555556 34:0.555556 35:0.555556 36:0.444444 37:0.333333 38:0.222222 39:0.333333 40:0.222222 41:0.222222 42:0.555556 43:0.333333 44:0.222222 45:0.333333 46:1 47:0.625 48:0.125 49:0.375 50:0.25 51:0.375 52:0.25 53:0.125 54:0.125 55:0.25 56:0.125 57:0.25 58:0.25 59:1 60:0.125 61:0.25 62:0.75 63:0.75 64:0.625 65:0.666667 66:0.444444 67:0.222222 68:0.222222 69:0.333333 70:1 71:1 72:0.777778 73:0.333333 74:0.222222 75:0.0526316 76:0.391304 77:0.478261 78:0.26087 79:0.130435 80:0.26087 81:0.391304 82:0.391304 83:0.608696 84:0.391304 85:0.608696 86:0.26087 87:0.695652 88:0.391304 89:0.26087 90:0.956522 91:0.956522 92:0.913043 93:0.916667 94:0.166667 95:0.416667 96:0.416667 97:0.291667 98:0.708333 99:0.708333 101:0.25 102:0.495127 103:0.526508 104:0.551839 105:0.505764 106:0.519841 109:0.5 110:1 
0.8797151712694 1:0.888889 2:0.888889 3:0.555556 4:0.444444 5:0.111111 6:0.333333 7:0.777778 8:0.555556 9:0.666667 10:0.571429 11:0.25 12:0.375 14:0.375 15:0.25 16:0.375 17:0.375 18:0.125 19:0.375 20:0.375 21:0.125 22:0.125 24:0.25 25:0.75 27:0.125 28:0.111111 29:0.333333 30:0.111111 31:0.111111 32:1 35:1 36:1 37:1 38:0.555556 39:0.555556 40:0.555556 41:0.111111 42:0.444444 43:0.222222 44:0.555556 45:0.555556 46:0.555556 47:0.5 48:0.125 49:0.25 50:0.375 52:0.125 55:0.25 58:0.25 59:0.25 60:0.375 61:0.125 62:0.5 63:0.375 64:0.25 65:0.444444 66:0.444444 67:0.444444 68:0.444444 69:0.555556 72:0.555556 73:0.888889 74:0.666667 76:0.391304 77:0.608696 78:0.130435 79:0.521739 80:0.391304 81:0.521739 82:0.521739 83:0.26087 84:0.521739 85:0.521739 86:0.26087 87:0.26087 88:0.130435 89:0.391304 90:0.347826 91:0.130435 92:0.26087 93:0.166667 94:0.5 95:0.166667 96:0.166667 101:0.171875 102:0.461988 103:0.49543 104:0.538462 105:0.589337 106:0.509921 109:0.75 110:1 
1.261044756062123 1:0.111111 2:0.222222 3:1 4:0.444444 5:0.111111 6:0.444444 7:0.111111 8:0.444444 9:0.888889 11:0.375 12:0.25 13:0.375 15:0.375 18:0.5 19:0.375 20:0.25 21:0.375 23:0.375 25:0.125 27:0.125 28:0.555556 29:0.666667 30:0.888889 31:0.888889 32:0.666667 35:0.666667 36:0.666667 37:0.888889 38:0.444444 39:0.333333 40:0.777778 41:0.111111 42:0.444444 43:0.111111 44:0.444444 45:0.333333 46:1 47:0.375 49:0.125 51:0.375 53:0.375 54:0.375 55:1 57:0.375 59:0.375 61:0.375 62:0.25 63:0.375 64:0.25 65:1 66:1 67:0.555556 68:0.888889 69:0.555556 72:0.555556 73:0.888889 74:0.555556 75:0.157895 76:0.521739 77:0.391304 78:0.521739 79:0.130435 80:0.521739 81:0.130435 82:0.130435 83:0.695652 84:0.521739 85:0.478261 86:0.521739 87:0.130435 88:0.521739 89:0.130435 90:0.26087 91:0.130435 92:0.26087 93:0.708333 94:0.75 95:0.541667 96:0.666667 101:0.234375 102:0.71462 103:0.732358 104:0.723411 105:0.727089 106:0.752976 108:0.25 109:0.25 
1.449214618259532 1:0.777778 2:0.777778 3:0.444444 4:0.444444 5:0.444444 6:0.222222 7:0.888889 8:0.222222 9:0.222222 10:0.142857 11:0.375 12:0.25 14:1 15:1 17:0.25 18:0.375 19:0.25 21:0.375 22:0.75 23:0.875 24:0.25 25:0.375 28:0.222222 29:0.444444 30:1 31:0.777778 32:0.111111 33:0.444444 34:0.222222 35:0.111111 36:0.333333 37:0.333333 38:0.777778 39:0.555556 40:0.333333 41:0.333333 42:0.111111 43:0.333333 44:0.888889 45:0.333333 46:0.333333 47:0.25 49:0.125 50:0.375 51:0.75 52:0.875 53:0.375 54:0.125 55:0.25 56:0.125 57:0.375 58:0.25 59:1 60:1 61:0.375 63:0.375 64:0.375 65:0.333333 66:0.111111 67:0.555556 68:0.555556 69:0.444444 70:0.333333 71:0.333333 72:0.444444 73:0.444444 74:0.444444 75:0.315789 76:0.521739 77:0.391304 78:0.130435 79:0.956522 80:1 81:0.130435 82:0.391304 83:0.608696 84:0.391304 85:0.130435 86:0.608696 87:0.782609 88:0.826087 89:0.478261 90:0.521739 91:0.130435 92:0.130435 93:0.291667 94:0.541667 95:0.875 96:0.375 97:0.166667 98:0.625 99:0.291667 100:0.333333 101:0.28125 102:0.645224 103:0.654479 104:0.658863 105:0.675793 106:0.738095 107:0.333333 
1.415375145673841 1:0.666667 2:0.555556 3:0.666667 4:0.555556 5:0.888889 6:0.888889 7:0.555556 8:0.111111 9:0.222222 10:0.142857 14:0.25 16:0.25 17:0.25 18:0.5 20:0.25 21:0.25 22:0.375 23:0.125 24:0.125 25:0.125 27:0.875 28:0.444444 29:0.111111 30:0.222222 31:0.444444 32:0.333333 35:0.333333 36:0.222222 37:1 38:1 39:1 40:1 41:1 42:1 43:1 44:1 45:0.444444 46:0.333333 47:0.25 48:0.375 49:0.375 50:0.375 51:0.125 52:0.375 53:0.125 54:0.125 55:0.5 56:0.375 57:0.125 58:0.125 60:0.25 61:0.25 62:0.25 63:0.375 64:0.625 65:0.111111 66:0.444444 67:0.333333 68:0.111111 69:0.222222 72:0.222222 73:0.333333 74:0.555556 75:0.315789 76:0.130435 77:0.130435 78:0.130435 79:0.391304 80:0.130435 81:0.391304 82:0.391304 84:0.130435 85:0.391304 86:0.391304 87:0.521739 88:0.26087 89:0.26087 90:0.26087 91:0.130435 92:0.565217 93:0.541667 94:0.166667 95:0.291667 96:0.541667 100:0.333333 101:0.171875 102:0.319688 103:0.35649 104:0.411371 105:0.492795 106:0.333333 108:0.25 
1.599584199191392 1:1 2:0.111111 3:0.111111 4:0.111111 5:0.111111 6:0.222222 7:0.222222 8:0.111111 9:0.444444 10:0.428571 12:0.375 13:0.25 14:0.125 16:0.375 17:0.375 18:0.25 19:0.375 21:0.375 22:0.375 23:0.375 24:0.375 25:0.375 27:0.25 28:0.333333 29:0.888889 30:0.222222 31:0.222222 32:0.222222 35:0.222222 36:0.111111 37:0.555556 38:0.888889 39:0.444444 40:0.444444 41:0.444444 42:0.444444 43:0.333333 44:0.333333 45:0.444444 46:0.111111 48:0.375 50:0.125 51:0.25 52:0.375 55:0.125 57:0.375 63:0.375 64:0.125 65:0.222222 66:0.666667 67:0.333333 68:0.333333 69:0.333333 72:0.333333 73:0.444444 74:0.777778 75:0.631579 76:0.130435 77:0.521739 78:0.391304 79:0.26087 80:0.130435 81:0.521739 82:0.521739 83:0.391304 84:0.521739 85:0.130435 86:0.521739 87:0.521739 88:0.521739 89:0.521739 90:0.521739 91:0.130435 92:0.391304 93:0.416667 94:0.583333 95:0.291667 96:0.291667 100:1 101:0.125 102:0.454191 103:0.440585 104:0.404682 105:0.446686 106:0.406746 
1.004614302215354 1:0.333333 2:1 3:0.666667 4:0.555556 5:0.666667 6:0.666667 7:0.666667 8:0.888889 9:0.222222 10:0.428571 11:0.375 12:0.375 13:0.125 14:0.125 16:0.375 17:0.5 18:0.25 19:0.25 20:0.375 21:0.25 23:0.375 24:0.25 26:0.25 27:0.375 28:0.222222 29:0.111111 30:0.222222 31:0.111111 32:0.333333 35:0.333333 36:0.333333 37:0.777778 38:0.222222 39:0.666667 40:0.666667 41:0.888889 42:0.555556 43:0.666667 44:0.666667 45:0.666667 46:0.333333 50:0.25 51:0.25 52:0.375 53:0.25 54:0.5 55:0.125 56:0.125 58:0.125 59:0.375 61:0.125 62:0.375 63:0.125 65:0.333333 66:0.444444 67:0.333333 68:0.444444 69:0.222222 72:0.222222 73:0.222222 74:1 75:0.631579 76:0.521739 77:0.521739 78:0.26087 79:0.26087 80:0.130435 81:0.608696 83:0.391304 84:0.391304 85:0.521739 86:0.391304 87:0.130435 88:0.521739 89:0.391304 90:0.130435 91:0.391304 92:0.521739 93:0.291667 94:0.166667 95:0.291667 96:0.166667 100:1 101:0.234375 102:0.302144 103:0.345521 104:0.401338 105:0.48415 106:0.263889 107:0.166667 109:0.25 
0.9518012405540444 1:0.333333 2:0.333333 3:0.444444 4:0.555556 5:0.222222 6:0.222222 7:0.111111 8:0.111111 9:0.444444 10:0.428571 11:0.375 12:1 13:0.25 14:0.25 15:0.125 16:0.125 18:0.625 19:0.5 20:0.5 21:0.375 22:0.25 23:0.25 24:0.25 25:0.375 26:0.875 28:0.333333 29:0.111111 30:0.111111 31:0.222222 32:0.111111 33:0.222222 35:0.222222 36:0.888889 37:0.555556 38:0.222222 39:0.222222 40:0.333333 41:1 42:0.333333 43:0.333333 44:0.444444 45:0.444444 46:0.111111 49:0.5 50:0.125 51:0.125 52:0.25 53:0.25 54:0.375 55:0.5 56:0.625 57:0.625 59:0.125 60:0.125 61:0.125 63:0.875 64:0.375 65:0.222222 66:0.444444 67:0.444444 68:0.333333 69:0.444444 70:0.333333 72:0.333333 73:0.888889 74:0.888889 75:0.631579 76:0.521739 77:0.869565 78:0.391304 79:0.391304 80:0.26087 81:0.26087 82:0.130435 83:0.173913 84:0.0434783 85:0.0434783 86:0.521739 87:0.391304 88:0.391304 89:0.391304 90:0.521739 91:0.652174 92:0.130435 93:0.416667 94:0.166667 95:0.166667 96:0.291667 97:0.166667 100:1 101:0.125 102:0.536062 103:0.555759 104:0.494983 105:0.497118 106:0.498016 107:0.166667 108:0.75 
1.331169287509225 1:0.666667 2:0.555556 3:0.555556 4:0.444444 5:0.333333 6:0.111111 7:0.333333 8:0.777778 9:0.888889 11:0.25 13:1 14:0.125 15:0.125 17:0.875 18:0.25 19:0.25 20:1 21:0.25 22:0.375 23:0.375 24:0.125 25:0.875 26:0.125 28:0.888889 29:0.888889 30:0.777778 31:0.444444 32:0.111111 33:0.111111 34:0.444444 35:0.444444 36:1 37:1 38:0.888889 39:0.555556 40:0.555556 41:0.111111 42:0.222222 43:0.444444 44:0.222222 45:0.888889 46:0.777778 47:0.375 48:0.125 49:0.375 50:0.625 51:0.25 52:0.25 53:0.375 54:0.625 55:0.125 56:0.125 57:0.875 58:0.125 60:0.25 61:0.25 62:0.875 63:0.25 64:0.375 65:1 66:0.666667 67:0.555556 68:0.111111 69:0.444444 70:0.444444 71:0.333333 72:0.333333 73:0.777778 74:0.888889 75:0.157895 76:0.391304 77:0.130435 78:0.913043 79:0.26087 80:0.26087 81:0.130435 82:0.565217 83:0.391304 84:0.391304 85:1 86:0.391304 87:0.521739 88:0.608696 89:0.26087 90:0.652174 91:0.26087 92:0.130435 93:0.833333 94:0.583333 95:0.375 96:0.541667 97:0.166667 98:0.166667 101:0.234375 102:0.730994 103:0.731261 104:0.67893 105:0.684438 106:0.787698 107:0.333333 108:0.25 109:0.5 
0.7695478244093324 1:0.333333 2:0.666667 3:0.222222 4:0.111111 5:0.444444 6:0.333333 7:0.111111 8:0.666667 9:0.555556 10:0.428571 11:0.375 12:0.25 13:0.375 14:0.25 15:0.375 16:0.125 18:0.5 19:0.375 21:0.375 22:0.25 23:0.625 24:0.25 26:0.375 27:0.25 28:0.111111 29:0.444444 30:0.333333 31:0.444444 32:0.777778 35:0.777778 36:0.888889 37:0.444444 38:0.222222 39:0.555556 40:0.333333 41:0.444444 42:0.111111 43:0.222222 44:0.444444 45:0.555556 46:0.666667 49:0.125 50:0.25 51:0.125 53:0.25 54:0.375 55:0.75 56:0.25 57:0.375 58:0.25 59:0.125 60:0.5 61:0.125 62:0.375 64:0.125 65:0.444444 66:0.333333 67:0.222222 68:0.333333 69:1 72:1 73:1 74:0.111111 75:0.631579 76:0.521739 77:0.391304 78:0.608696 79:0.391304 80:0.521739 81:0.26087 82:0.130435 83:0.0869565 84:0.608696 85:0.130435 86:0.608696 87:0.391304 88:0.173913 89:0.391304 90:0.130435 91:0.521739 92:0.391304 93:0.166667 94:0.625 95:0.416667 96:0.625 100:1 101:0.1875 102:0.526316 103:0.555759 104:0.568562 105:0.556196 106:0.589286 108:0.25 109:0.5 
1.313538102361914 1:0.333333 2:0.222222 3:0.222222 4:0.888889 5:0.666667 6:0.444444 7:0.222222 8:0.222222 9:0.333333 12:0.25 13:0.625 14:0.625 15:0.875 16:0.25 17:0.125 18:1 19:0.625 20:0.125 21:0.25 22:0.25 23:0.125 24:0.375 25:1 26:0.125 27:0.125 28:1 29:1 30:0.888889 31:0.222222 32:0.333333 33:0.333333 34:0.333333 35:0.555556 36:0.666667 37:0.666667 38:0.222222 39:0.333333 40:0.333333 41:1 42:1 43:0.111111 44:0.333333 45:0.333333 46:0.222222 47:0.375 48:0.375 49:0.125 50:1 51:1 52:0.625 53:0.125 54:0.25 55:0.875 56:0.625 57:0.25 58:0.375 59:0.125 60:0.25 62:0.625 63:0.25 64:0.25 65:0.888889 66:0.555556 67:0.666667 68:0.333333 69:0.222222 70:0.222222 71:0.222222 72:0.666667 73:0.666667 74:0.777778 75:0.157895 76:0.130435 77:0.391304 78:0.73913 79:0.73913 80:0.565217 81:0.391304 82:0.26087 83:1 84:0.217391 85:0.26087 86:0.478261 87:0.391304 88:0.26087 89:0.521739 90:0.913043 91:0.26087 92:0.26087 93:1 94:0.875 95:0.583333 96:0.291667 97:0.416667 98:0.416667 99:0.416667 101:0.15625 102:0.590643 103:0.555759 104:0.560201 105:0.567723 106:0.718254 107:0.5 108:0.5 
1.293086619560054 1:0.222222 2:0.222222 3:0.222222 4:0.666667 5:0.666667 6:0.333333 7:0.222222 8:0.222222 9:0.444444 10:0.285714 12:0.125 14:0.625 15:0.25 16:0.25 17:0.25 18:0.625 19:0.25 21:0.125 22:1 23:0.5 24:0.25 25:0.125 26:0.375 27:0.75 28:0.222222 29:0.333333 30:0.333333 31:0.222222 32:0.222222 33:0.222222 35:0.222222 36:0.333333 37:0.666667 38:0.333333 39:0.333333 40:0.333333 41:0.555556 42:0.555556 43:0.222222 44:0.333333 45:0.333333 46:0.111111 47:0.125 48:0.375 49:0.25 50:0.375 51:1 52:0.125 53:0.125 54:0.375 55:1 56:0.125 57:0.375 58:0.25 59:0.625 60:0.75 61:0.375 62:0.25 64:1 65:0.333333 66:0.222222 67:0.222222 68:0.333333 69:0.333333 70:0.333333 72:0.333333 73:0.222222 74:1 75:0.473684 76:0.130435 77:0.26087 78:0.130435 79:0.73913 80:0.391304 81:0.391304 82:0.478261 83:0.73913 84:0.391304 85:0.130435 86:0.26087 87:0.913043 88:0.0869565 89:0.478261 90:0.26087 91:0.521739 92:0.782609 93:0.291667 94:0.416667 95:0.416667 96:0.291667 97:0.291667 100:0.666667 101:0.203125 102:0.508772 103:0.478976 104:0.43311 105:0.466859 106:0.492063 107:0.166667 108:0.25 
0.9793530636428304 1:0.333333 2:0.222222 3:0.444444 4:0.333333 5:0.444444 6:0.444444 7:0.222222 8:0.222222 9:0.444444 11:0.25 12:0.25 13:0.25 14:0.375 15:0.25 16:0.375 17:0.375 18:0.875 19:0.125 20:0.375 21:0.125 22:0.375 23:0.125 25:0.375 26:0.125 27:0.375 28:0.222222 29:0.444444 30:0.333333 31:0.777778 32:0.888889 35:0.888889 36:0.222222 37:0.444444 38:0.222222 39:0.333333 40:0.111111 41:0.222222 42:0.111111 43:0.111111 44:0.333333 45:0.333333 46:0.111111 47:0.375 48:0.125 49:0.125 50:0.125 52:0.125 55:0.625 56:0.25 57:0.25 58:0.25 60:0.25 61:0.375 63:0.25 65:0.333333 66:0.111111 67:0.444444 68:1 69:1 72:1 73:0.333333 74:0.111111 75:0.157895 76:0.391304 77:0.391304 78:0.391304 79:0.521739 80:0.391304 81:0.521739 82:0.521739 83:0.565217 84:0.26087 85:0.608696 86:0.26087 87:0.521739 88:0.26087 89:0.130435 90:0.521739 91:0.26087 92:0.521739 93:0.291667 94:0.541667 95:0.5 96:0.791667 101:0.171875 102:0.335283 103:0.316271 104:0.326087 105:0.272334 106:0.454365 108:0.25 
1.453395657373041 1:0.333333 2:0.333333 3:1 4:1 5:0.555556 6:0.222222 7:0.222222 8:0.666667 9:0.444444 10:0.285714 11:0.625 12:0.875 13:0.25 14:0.25 15:0.25 16:0.625 18:0.25 19:0.25 20:0.25 21:0.125 22:0.375 23:0.375 24:0.125 25:0.375 26:0.25 27:1 28:0.111111 29:0.333333 30:0.222222 31:0.444444 32:0.222222 33:0.222222 35:0.222222 36:0.444444 37:0.444444 38:0.222222 39:0.222222 40:0.777778 41:0.555556 42:0.666667 43:0.333333 44:0.333333 45:0.888889 46:0.111111 47:0.125 48:0.625 49:0.875 50:0.125 51:0.125 52:0.125 53:1 54:0.375 55:0.125 56:0.125 57:0.125 58:0.25 59:0.25 60:0.25 61:0.25 63:0.125 64:0.625 65:0.444444 66:0.222222 67:0.333333 68:0.333333 69:0.333333 70:0.333333 72:0.333333 73:0.111111 74:0.333333 75:0.473684 76:0.217391 77:0.652174 78:0.391304 79:0.391304 80:0.391304 81:0.73913 82:0.130435 83:0.391304 84:0.391304 85:0.391304 86:0.26087 87:0.608696 88:0.608696 89:0.26087 90:0.521739 91:0.391304 92:0.913043 93:0.166667 94:0.416667 95:0.291667 96:0.625 97:0.291667 100:0.666667 101:0.21875 102:0.405458 103:0.442413 104:0.441472 105:0.504323 106:0.309524 107:0.333333 109:0.5 
0.567159230053958 1:0.111111 2:0.111111 3:0.333333 4:0.333333 5:0.111111 6:0.333333 7:0.222222 8:0.222222 9:0.444444 10:0.571429 11:0.25 13:0.125 14:0.375 15:0.375 16:0.625 17:0.125 18:0.125 20:0.375 21:0.375 22:0.375 23:0.25 26:0.25 27:0.25 28:0.444444 29:0.333333 30:0.333333 31:0.666667 32:0.666667 35:0.666667 36:0.555556 37:0.888889 38:0.444444 39:0.444444 40:0.222222 41:0.222222 42:0.444444 43:0.222222 44:0.333333 45:0.333333 46:0.111111 47:0.625 48:0.125 49:0.375 50:0.25 53:0.875 54:0.25 55:0.25 56:0.375 60:0.125 61:0.375 62:0.375 63:0.125 64:0.125 65:0.111111 66:0.222222 67:0.222222 68:0.555556 69:0.888889 72:0.888889 73:0.666667 74:0.666667 75:0.0526316 76:0.391304 77:0.130435 78:0.26087 79:0.521739 80:0.521739 81:0.304348 82:0.26087 83:0.26087 84:0.130435 85:0.521739 86:0.521739 87:0.521739 88:0.391304 89:0.130435 90:0.130435 91:0.391304 92:0.391304 93:0.541667 94:0.416667 95:0.416667 96:0.208333 101:0.078125 102:0.421053 103:0.396709 104:0.364548 105:0.327089 106:0.46746 107:0.166667 109:0.25 110:1 
1.216513803228927 1:0.444444 2:0.222222 3:0.111111 4:0.222222 5:0.111111 6:0.333333 7:1 8:0.666667 9:0.666667 13:0.125 14:0.875 15:0.125 16:0.375 17:0.5 18:0.125 19:0.375 20:0.375 21:0.25 22:0.375 23:0.125 24:0.625 25:0.375 26:0.375 27:0.125 28:0.444444 29:0.333333 30:0.111111 31:0.333333 32:0.444444 35:0.444444 36:0.777778 37:0.888889 38:0.333333 39:0.333333 40:0.444444 41:0.333333 42:0.444444 43:0.222222 44:0.666667 45:0.666667 46:0.555556 47:0.375 48:0.375 49:0.375 50:0.25 51:1 52:0.25 54:0.625 55:0.25 58:0.125 60:0.25 61:1 63:0.25 64:0.25 65:0.111111 66:0.222222 67:0.444444 68:0.222222 69:0.333333 72:0.333333 73:1 74:1 75:0.157895 76:0.130435 77:0.130435 78:0.26087 79:0.826087 80:0.26087 81:0.521739 82:0.0434783 83:0.26087 84:0.521739 85:0.521739 86:0.391304 87:0.521739 88:0.26087 89:0.73913 90:0.521739 91:0.608696 92:0.26087 93:0.541667 94:0.416667 95:0.166667 96:0.416667 101:0.28125 102:0.62768 103:0.650823 104:0.680602 105:0.628242 106:0.644841 107:0.333333 109:0.5 
1.437805125517202 1:0.555556 2:0.333333 3:0.444444 4:0.111111 5:0.333333 6:0.111111 7:0.555556 8:0.777778 9:0.222222 11:0.375 12:0.125 13:0.625 14:0.625 15:0.875 16:0.375 17:0.25 18:0.125 20:0.25 21:0.25 22:0.25 23:0.75 24:0.625 25:0.375 26:0.25 27:0.375 28:0.444444 29:0.333333 30:0.333333 31:0.333333 32:0.888889 35:0.888889 36:0.888889 37:0.333333 38:0.555556 39:0.222222 40:0.333333 41:0.444444 42:0.444444 43:0.444444 44:0.666667 45:0.888889 46:0.333333 47:0.375 49:0.25 50:1 51:1 52:1 54:0.375 55:0.25 56:0.375 57:0.125 58:0.375 59:0.125 60:0.5 61:0.875 62:0.25 63:0.375 65:0.333333 66:0.222222 67:0.222222 68:0.222222 69:0.888889 72:0.888889 73:0.888889 74:0.222222 75:0.157895 76:0.521739 77:0.26087 78:0.73913 79:0.73913 80:0.826087 81:0.521739 82:0.478261 83:0.26087 84:0.130435 85:0.391304 86:0.478261 87:0.391304 88:0.347826 89:0.304348 90:0.608696 91:0.478261 92:0.521739 93:0.625 94:0.416667 95:0.416667 96:0.416667 101:0.28125 102:0.588694 103:0.606947 104:0.638796 105:0.602305 106:0.700397 107:0.5 109:0.25 
1.107888011202515 1:0.111111 2:0.333333 3:0.666667 4:0.666667 5:0.444444 6:0.333333 7:0.333333 8:0.444444 9:0.888889 10:0.571429 11:0.75 12:0.5 13:0.125 14:0.125 15:0.375 16:0.25 17:0.25 18:0.125 19:0.625 20:0.125 22:0.25 23:0.5 24:0.125 25:0.125 26:1 27:0.375 28:0.222222 29:0.111111 30:0.333333 31:0.222222 32:0.444444 33:0.555556 35:0.555556 36:0.666667 38:0.444444 39:0.222222 40:0.555556 41:0.666667 42:0.111111 43:0.222222 44:0.222222 45:0.333333 46:1 47:1 48:1 49:0.75 50:0.25 51:0.25 53:0.125 54:0.375 55:0.25 56:0.5 57:0.25 58:0.375 59:0.125 60:0.5 61:0.25 62:0.25 63:0.875 65:0.333333 66:0.444444 67:0.222222 68:0.333333 69:0.111111 70:0.555556 72:0.555556 73:0.666667 75:0.842105 76:0.782609 77:0.0869565 78:0.26087 79:0.26087 80:0.521739 81:0.391304 82:0.478261 83:0.26087 84:0.173913 85:0.26087 86:0.130435 87:0.391304 89:0.26087 90:0.26087 91:1 92:0.521739 93:0.291667 94:0.166667 95:0.416667 96:0.291667 97:0.541667 101:0.109375 102:0.506823 103:0.537477 104:0.501672 105:0.563401 106:0.545635 107:0.166667 108:0.25 109:0.75 110:1 
1.238731637882867 1:0.333333 2:0.333333 3:0.111111 4:0.333333 5:0.222222 6:0.444444 7:0.777778 8:0.666667 9:0.666667 10:0.571429 11:0.625 12:0.875 13:0.375 14:0.25 15:0.25 16:0.25 17:0.125 19:0.125 20:0.875 21:0.25 25:0.125 28:0.444444 29:0.333333 30:0.888889 31:0.666667 32:0.666667 35:0.666667 36:0.111111 37:0.444444 38:0.222222 39:0.444444 40:0.444444 41:0.222222 42:0.333333 43:0.111111 44:1 45:1 46:0.777778 47:0.875 48:1 49:0.875 51:0.125 52:0.125 53:0.375 54:0.25 55:0.375 56:0.25 57:1 58:0.375 59:0.375 60:0.375 61:0.375 62:0.25 63:0.375 64:0.375 65:0.111111 66:0.222222 67:1 68:1 69:1 72:1 73:0.444444 74:0.111111 75:0.157895 76:0.73913 77:0.652174 78:0.521739 79:0.391304 80:0.391304 81:0.478261 82:0.26087 83:0.130435 84:0.26087 85:0.826087 86:0.478261 87:0.130435 88:0.130435 89:0.130435 90:0.26087 91:0.130435 92:0.130435 93:0.541667 94:0.416667 95:0.833333 96:0.75 101:0.3125 102:0.637427 103:0.659963 104:0.688963 105:0.62536 106:0.672619 107:0.166667 108:0.25 109:1 110:1 
1.344261920808209 1:0.777778 2:0.333333 3:0.333333 4:0.222222 5:0.333333 6:0.222222 7:0.777778 8:0.333333 9:0.222222 11:0.25 12:0.75 13:0.75 15:0.875 16:0.125 17:0.25 18:0.125 19:0.75 20:0.25 21:0.25 22:0.125 23:0.25 24:0.25 25:1 26:0.25 27:0.375 28:1 29:1 30:0.333333 31:0.333333 32:0.222222 33:0.333333 34:1 35:0.222222 36:0.222222 37:1 38:1 39:0.444444 40:0.222222 41:0.333333 42:0.222222 43:0.333333 44:0.777778 45:0.222222 46:0.333333 47:0.375 48:0.125 49:0.5 50:0.5 51:0.375 52:1 53:0.25 54:0.125 55:0.25 56:0.75 57:0.125 58:0.125 59:0.25 60:0.125 61:0.125 62:0.75 63:0.125 64:0.25 65:0.888889 66:0.777778 67:0.222222 68:0.222222 69:0.333333 70:0.222222 71:0.777778 72:0.333333 73:0.333333 74:0.888889 75:0.157895 76:0.391304 77:0.347826 78:0.347826 79:0.130435 80:0.826087 81:0.26087 82:0.391304 83:0.26087 84:0.434783 85:0.391304 86:0.391304 87:0.26087 88:0.391304 89:0.391304 90:0.956522 91:0.391304 92:0.608696 93:1 94:0.958333 95:0.416667 96:0.416667 97:0.291667 98:0.416667 99:0.958333 101:0.390625 102:0.461988 103:0.464351 104:0.458194 105:0.420749 106:0.474206 107:0.5 108:0.25 
1.219568932064996 1:0.111111 2:0.555556 3:0.111111 4:0.333333 5:0.333333 6:0.111111 7:0.111111 8:0.333333 9:0.333333 13:0.25 15:0.125 17:0.375 19:0.25 20:0.25 22:0.375 23:0.5 24:0.75 26:0.25 27:0.375 28:0.222222 29:0.111111 30:0.222222 31:0.222222 32:0.444444 35:0.444444 36:0.222222 37:0.444444 38:0.444444 39:0.666667 40:0.444444 41:0.222222 42:0.222222 43:0.444444 44:0.444444 45:0.222222 46:0.222222 47:0.375 48:0.375 49:0.375 50:0.125 51:0.375 52:0.25 53:0.375 55:0.375 56:0.125 57:0.125 58:0.375 59:0.25 60:1 61:1 62:0.375 63:0.125 65:0.333333 66:0.444444 67:0.333333 68:0.333333 69:0.111111 72:0.111111 73:0.333333 74:0.111111 75:0.157895 76:0.130435 77:0.130435 78:0.391304 79:0.130435 80:0.26087 81:0.130435 82:0.521739 83:0.130435 84:0.391304 85:0.391304 86:0.130435 87:0.608696 88:0.695652 89:0.782609 90:0.130435 91:0.391304 92:0.521739 93:0.291667 94:0.166667 95:0.291667 96:0.291667 101:0.265625 102:0.348928 103:0.360146 104:0.351171 105:0.364553 106:0.361111 
1.344283661169442 1:0.222222 2:0.666667 3:0.444444 4:0.222222 5:0.222222 6:1 7:1 8:1 9:1 12:0.25 13:0.375 14:0.25 15:0.375 16:0.75 17:0.125 19:0.25 20:0.25 21:1 22:1 23:1 24:1 25:0.25 26:0.125 28:0.222222 29:0.444444 30:0.777778 31:0.333333 32:0.444444 33:0.777778 34:1 35:0.333333 36:0.333333 37:0.222222 38:0.333333 39:0.555556 40:0.111111 41:0.333333 42:0.333333 43:0.666667 44:0.888889 45:0.777778 46:0.555556 47:0.375 48:0.375 49:0.125 51:0.125 52:0.25 53:1 54:0.25 55:0.375 56:0.125 57:0.125 58:0.5 59:0.75 60:0.75 61:0.5 62:0.125 63:0.25 64:0.375 65:0.333333 66:0.111111 67:0.555556 68:0.555556 69:0.777778 70:0.222222 71:0.333333 72:0.222222 73:0.222222 74:0.333333 75:0.157895 76:0.130435 77:0.391304 78:0.521739 79:0.391304 80:0.608696 81:0.782609 82:0.26087 83:0.130435 84:0.391304 85:0.391304 86:0.869565 87:0.956522 88:0.956522 89:0.869565 90:0.391304 91:0.26087 92:0.130435 93:0.291667 94:0.541667 95:0.375 96:0.375 97:0.625 98:0.416667 99:0.958333 101:0.234375 102:0.645224 103:0.667276 104:0.695652 105:0.685879 106:0.5 107:0.166667 108:0.25 109:0.5 
1.246711352400178 1:1 2:0.333333 3:0.333333 4:0.333333 5:0.333333 6:0.444444 7:0.666667 8:0.888889 9:0.666667 11:0.25 12:0.25 14:0.25 15:0.25 16:0.625 18:0.25 19:0.125 20:0.25 21:1 22:0.625 23:0.875 24:0.125 25:0.375 26:0.125 28:0.333333 29:0.333333 30:0.555556 31:0.222222 32:0.333333 33:0.444444 35:0.444444 36:0.666667 37:0.555556 38:0.666667 39:0.444444 40:0.222222 41:0.222222 42:0.222222 43:0.111111 44:1 45:1 46:0.666667 47:0.375 48:0.125 49:0.125 50:0.375 51:0.125 52:0.125 53:1 54:0.375 55:0.125 56:0.25 57:0.375 58:0.625 59:0.875 60:0.625 61:0.25 62:0.25 63:0.25 64:0.375 65:0.222222 66:0.222222 67:0.777778 68:0.333333 69:0.444444 70:0.111111 72:0.111111 73:0.666667 74:0.666667 75:0.157895 76:0.391304 77:0.391304 78:0.130435 79:0.391304 80:0.391304 81:0.73913 82:0.130435 83:0.391304 84:0.26087 85:0.478261 86:0.913043 87:0.304348 88:0.565217 89:0.26087 90:0.608696 91:0.26087 92:0.130435 93:0.416667 94:0.416667 95:0.125 96:0.291667 97:0.5 101:0.125 102:0.539961 103:0.568556 104:0.605351 105:0.54611 106:0.563492 107:0.166667 108:0.25 109:0.5 
1.378664082782799 1:0.333333 2:0.333333 3:0.666667 4:0.333333 5:0.444444 6:0.222222 7:1 8:0.222222 9:0.222222 11:0.25 12:0.25 13:1 14:0.625 15:0.75 16:0.25 17:0.75 18:0.25 19:0.125 20:0.25 21:1 22:0.125 23:0.125 24:0.25 25:0.125 26:0.25 27:0.25 28:0.333333 29:0.111111 30:1 31:1 32:0.222222 33:0.222222 34:0.333333 35:0.222222 36:0.666667 37:0.888889 38:0.222222 39:0.222222 40:1 41:0.222222 42:0.333333 43:0.333333 44:0.888889 45:0.333333 46:0.333333 47:0.375 48:0.125 49:0.125 50:0.875 51:0.875 52:0.875 53:0.375 54:0.75 55:0.375 56:0.25 57:0.125 58:0.625 59:0.25 60:0.25 61:0.125 62:0.25 63:0.125 64:0.125 65:0.222222 66:0.444444 67:0.555556 68:0.777778 69:0.777778 70:0.777778 71:0.888889 72:0.333333 73:0.222222 74:0.333333 75:0.157895 76:0.391304 77:0.391304 78:1 79:0.304348 80:0.478261 81:0.478261 82:0.434783 83:0.478261 84:0.26087 85:0.391304 86:0.913043 87:0.26087 88:0.26087 89:0.391304 90:0.26087 91:0.391304 92:0.391304 93:0.416667 94:0.166667 95:0.875 96:0.958333 97:0.291667 98:0.291667 99:0.5 101:0.234375 102:0.391813 103:0.418647 104:0.468227 105:0.476945 106:0.46627 107:0.666667 108:0.25 
0.9966218034295048 1:0.666667 2:0.444444 3:0.333333 4:0.111111 5:0.777778 6:0.333333 7:0.444444 8:0.222222 9:0.222222 10:0.428571 11:0.125 16:0.125 17:0.375 18:0.25 19:0.5 20:0.25 21:0.25 22:0.75 23:0.25 24:0.125 26:0.375 27:0.375 28:0.444444 29:0.444444 30:0.222222 31:0.444444 32:0.777778 35:0.777778 36:0.888889 37:0.777778 38:0.555556 39:0.111111 40:0.222222 41:0.444444 42:0.777778 43:0.444444 44:0.111111 45:0.333333 46:0.333333 47:0.25 48:0.25 49:0.375 50:0.375 51:0.375 52:0.375 53:0.25 55:0.125 56:1 57:0.125 58:0.125 59:0.5 60:0.125 61:0.25 62:0.375 63:0.25 65:0.111111 66:0.111111 67:0.333333 68:0.333333 69:0.555556 72:0.555556 73:0.555556 74:0.555556 75:0.736842 76:0.26087 77:0.130435 78:0.130435 79:0.130435 80:0.130435 81:0.26087 82:0.521739 83:0.391304 84:0.695652 85:0.391304 86:0.391304 87:0.347826 88:0.391304 89:0.26087 90:0.130435 91:0.608696 92:0.521739 93:0.541667 94:0.541667 95:0.291667 96:0.625 100:1 101:0.09375 102:0.448343 103:0.447898 104:0.453177 105:0.461095 106:0.589286 108:0.25 
1.2870206955646 1:0.111111 2:0.333333 3:0.222222 4:0.888889 5:0.555556 6:0.444444 7:0.333333 8:0.111111 9:0.777778 10:0.428571 11:0.125 12:0.375 13:0.5 14:0.625 18:0.25 19:0.25 20:0.5 23:0.25 24:0.125 25:0.25 26:0.125 27:0.375 28:0.444444 29:0.444444 30:0.222222 31:0.444444 32:0.777778 35:0.777778 36:0.444444 37:0.444444 38:0.444444 39:0.444444 40:0.333333 41:0.777778 42:0.666667 43:0.111111 44:0.444444 45:0.444444 46:0.777778 47:0.25 48:0.25 50:0.75 51:0.875 52:0.375 53:0.375 54:0.375 55:0.125 56:0.125 57:0.625 58:0.375 59:0.375 60:0.125 61:0.25 62:0.125 63:0.25 65:0.111111 66:0.111111 67:0.333333 68:0.111111 69:0.777778 72:0.777778 73:0.111111 74:0.111111 75:0.736842 76:0.26087 77:0.521739 78:0.0869565 79:0.304348 80:0.130435 81:0.130435 82:0.130435 83:0.391304 84:0.391304 85:0.0434783 86:0.130435 87:0.130435 88:0.391304 89:0.26087 90:0.391304 91:0.26087 92:0.521739 93:0.541667 94:0.541667 95:0.291667 96:0.541667 100:1 101:0.171875 102:0.557505 103:0.572212 104:0.578595 105:0.590778 106:0.56746 107:0.333333 108:0.25 109:0.25 
1.140092792252277 1:0.111111 2:0.888889 3:0.444444 4:0.444444 5:0.333333 6:0.222222 7:0.111111 8:0.777778 9:0.444444 10:0.714286 12:0.25 13:0.375 14:0.5 16:0.125 20:0.25 22:0.375 23:0.375 24:0.125 25:0.5 26:0.375 27:0.125 28:0.222222 29:0.444444 30:0.444444 31:0.333333 32:0.444444 35:0.444444 36:1 37:0.333333 38:0.444444 39:0.888889 40:0.111111 41:0.111111 42:0.444444 43:0.333333 44:0.444444 45:0.777778 46:0.111111 47:0.875 48:0.375 49:0.125 51:0.625 52:0.375 53:0.25 54:0.375 55:0.375 56:0.375 57:0.125 58:0.375 61:0.25 62:1 64:0.25 65:0.333333 66:0.111111 67:0.111111 68:0.222222 69:0.111111 72:0.111111 73:0.555556 74:0.222222 75:0.368421 76:0.130435 77:0.391304 78:0.521739 79:0.0434783 80:0.130435 81:0.26087 82:0.130435 83:0.130435 84:0.130435 85:0.391304 86:0.130435 87:0.521739 88:0.521739 89:0.26087 90:0.695652 91:0.521739 92:0.26087 93:0.291667 94:0.541667 95:0.541667 96:0.416667 100:0.333333 101:0.15625 102:0.575049 103:0.601463 104:0.586957 105:0.605187 106:0.577381 107:0.166667 109:0.5 110:1 
1.609402040237534 4:0.333333 5:0.333333 6:0.111111 7:0.333333 8:0.333333 9:0.111111 10:0.285714 11:0.125 13:0.25 14:0.125 16:0.25 17:0.25 18:0.25 19:0.375 20:0.25 24:0.125 25:0.375 26:0.75 28:0.222222 29:0.555556 30:0.222222 31:0.111111 32:0.333333 35:0.333333 36:0.888889 41:0.222222 42:0.222222 43:0.444444 44:0.222222 45:0.222222 46:0.444444 47:0.125 48:0.25 49:0.375 50:0.125 51:0.25 52:0.375 53:0.375 54:0.375 55:0.125 57:0.125 58:0.375 59:0.375 60:0.375 61:0.25 63:0.75 64:0.375 65:0.333333 66:1 67:0.333333 68:0.444444 69:0.222222 72:0.222222 73:0.888889 75:0.473684 76:0.26087 77:0.130435 78:0.391304 79:0.26087 80:0.130435 81:0.478261 82:0.478261 83:0.391304 84:0.521739 85:0.391304 86:0.130435 87:0.130435 88:0.130435 89:0.26087 90:0.521739 91:0.434783 92:0.130435 93:0.291667 94:0.708333 95:0.291667 96:0.166667 100:0.666667 101:0.09375 102:0.380117 103:0.358318 104:0.337793 105:0.381844 106:0.440476 
1.127724323441091 1:0.111111 2:0.444444 3:0.222222 4:0.888889 5:0.555556 6:0.333333 7:0.333333 8:0.555556 9:0.777778 10:0.285714 11:0.125 13:0.25 14:0.75 15:0.375 16:0.25 17:0.125 18:0.875 19:0.125 21:0.125 22:0.375 23:1 24:0.375 25:0.25 26:0.875 27:0.125 28:0.222222 29:0.444444 30:0.222222 31:0.222222 32:0.444444 33:0.222222 35:0.222222 36:0.222222 37:0.555556 38:0.444444 39:0.111111 40:0.333333 41:0.888889 42:0.555556 43:0.222222 44:0.222222 45:0.555556 46:0.888889 47:0.375 48:0.25 49:0.375 50:0.125 51:0.5 53:0.125 54:0.25 55:1 56:0.25 57:0.375 58:0.25 60:0.875 62:0.125 63:0.625 64:0.25 65:0.333333 66:0.111111 67:0.333333 68:0.333333 69:0.111111 70:0.333333 72:0.333333 73:0.333333 74:0.777778 75:0.578947 76:0.26087 77:0.130435 78:0.391304 79:0.347826 80:0.521739 81:0.391304 82:0.26087 83:0.826087 84:0.26087 85:0.130435 86:0.26087 87:0.521739 88:1 89:0.521739 90:0.391304 91:0.565217 92:0.26087 93:0.291667 94:0.541667 95:0.291667 96:0.291667 97:0.541667 100:0.666667 101:0.25 102:0.508772 103:0.539305 104:0.513378 105:0.580692 106:0.424603 107:0.166667 108:0.25 109:0.5 
1.541553905496858 1:0.666667 2:0.666667 3:0.444444 4:0.111111 5:0.111111 6:0.111111 7:0.222222 8:0.888889 9:0.333333 10:0.285714 11:0.125 12:0.5 13:0.75 15:0.25 16:0.375 17:0.25 18:0.125 22:0.125 24:0.5 25:0.375 26:0.375 27:0.375 28:0.888889 29:0.333333 30:0.111111 31:0.222222 32:0.444444 35:0.444444 36:0.666667 38:0.555556 39:0.555556 40:0.111111 41:0.444444 42:0.444444 43:0.444444 44:0.333333 45:1 46:0.444444 47:0.125 48:0.25 49:1 50:0.75 51:0.375 52:0.125 54:0.125 55:0.25 56:0.375 57:0.375 58:0.375 59:0.25 60:0.375 61:1 65:0.888889 66:0.222222 67:0.444444 68:0.555556 69:0.333333 72:0.333333 73:0.111111 75:0.473684 76:0.26087 77:0.695652 78:0.434783 79:0.130435 80:0.391304 81:0.521739 82:0.391304 83:0.26087 84:0.130435 85:0.130435 86:0.130435 87:0.26087 88:0.130435 89:0.695652 90:0.521739 91:0.521739 92:0.521739 93:0.666667 94:0.416667 95:0.166667 96:0.208333 100:0.666667 101:0.078125 102:0.693957 103:0.71298 104:0.707358 105:0.70317 106:0.751984 107:0.333333 109:0.25 
1.190637488470908 1:0.444444 2:0.888889 3:0.666667 4:0.666667 5:0.333333 6:0.111111 7:0.333333 8:0.666667 9:0.222222 10:0.428571 11:0.125 12:0.125 14:0.25 15:0.375 17:0.125 18:0.125 20:0.125 21:0.25 22:0.375 23:0.75 24:0.875 25:0.625 26:0.5 27:0.25 28:0.333333 29:0.333333 30:0.222222 31:0.222222 32:0.555556 35:0.555556 36:0.222222 37:0.111111 38:0.333333 39:0.333333 40:1 41:0.555556 42:0.222222 43:0.444444 44:0.222222 45:0.666667 46:0.333333 47:0.25 48:0.25 49:0.25 50:0.375 51:0.125 52:0.25 53:0.375 54:0.25 55:0.25 56:0.375 57:0.25 58:0.375 60:1 61:1 62:1 63:0.75 64:0.375 65:0.222222 66:0.222222 67:0.333333 68:0.333333 69:1 72:1 73:0.333333 74:0.444444 75:0.736842 76:0.26087 77:0.26087 78:0.130435 79:0.391304 80:0.608696 81:0.130435 82:0.26087 83:0.26087 84:0.130435 85:0.26087 86:0.478261 87:0.521739 88:0.782609 89:0.826087 90:0.73913 91:0.0869565 92:0.478261 93:0.416667 94:0.416667 95:0.291667 96:0.291667 100:1 101:0.203125 102:0.362573 103:0.352834 104:0.396321 105:0.451009 106:0.420635 109:0.25 
1.333459397912184 1:0.222222 2:0.111111 3:0.777778 4:0.777778 5:0.444444 6:0.222222 7:0.444444 8:0.444444 9:0.666667 11:0.25 12:0.125 14:0.25 16:1 17:1 19:0.25 20:0.125 22:0.25 23:0.25 24:0.75 25:0.5 26:0.25 27:0.25 28:0.444444 29:0.444444 30:0.222222 31:0.888889 32:0.666667 33:0.222222 34:1 35:1 36:0.222222 37:0.111111 38:0.333333 39:0.444444 40:1 41:0.777778 42:0.111111 43:0.333333 44:0.333333 45:0.111111 46:0.666667 47:0.375 48:0.125 49:0.25 50:0.375 51:0.375 52:0.375 53:0.625 54:0.75 55:0.375 56:0.125 57:0.25 58:0.375 59:0.125 60:0.125 61:0.75 62:0.5 63:0.375 64:0.125 65:0.111111 66:0.111111 67:0.333333 68:0.777778 69:0.555556 70:0.333333 71:0.888889 72:0.888889 73:0.333333 74:0.444444 75:0.157895 76:0.391304 77:0.26087 78:0.130435 79:0.478261 80:0.130435 81:0.913043 82:0.956522 83:0.130435 84:0.391304 85:0.26087 86:0.130435 87:0.391304 88:0.391304 89:0.434783 91:0.478261 92:0.391304 93:0.541667 94:0.541667 95:0.291667 96:0.625 97:0.208333 98:0.291667 101:0.234375 102:0.590643 103:0.616088 104:0.598662 105:0.639769 106:0.603175 107:0.333333 109:0.25 
0.9077850459246273 1:0.333333 2:0.111111 3:0.555556 4:0.777778 5:0.444444 6:0.333333 7:0.222222 8:0.666667 9:0.222222 10:0.428571 12:0.125 13:0.375 14:0.875 15:0.75 16:0.25 20:0.25 21:0.25 22:0.625 24:0.875 25:0.625 27:0.25 28:0.444444 29:0.444444 30:0.333333 31:0.222222 32:0.888889 35:0.888889 36:0.888889 37:0.555556 38:0.222222 39:0.444444 40:0.777778 41:0.555556 42:0.111111 43:0.444444 44:0.333333 45:0.555556 46:0.333333 48:0.375 49:0.25 51:0.75 52:0.875 53:0.125 54:0.375 55:0.375 56:0.375 57:0.125 58:0.125 59:0.625 60:0.375 61:0.875 62:0.5 63:0.375 64:0.125 65:0.111111 66:0.111111 67:0.444444 68:0.333333 69:0.888889 72:0.888889 73:0.555556 74:0.666667 75:0.631579 76:0.130435 77:0.26087 78:0.521739 79:0.608696 80:0.478261 81:0.391304 82:0.130435 83:0.130435 84:0.130435 85:0.391304 86:0.391304 87:0.217391 88:0.130435 89:0.652174 90:0.173913 91:0.130435 92:0.391304 93:0.541667 94:0.541667 95:0.5 96:0.291667 100:1 101:0.09375 102:0.557505 103:0.585009 104:0.598662 105:0.616715 106:0.646825 107:0.333333 109:0.25 
1.088385399931052 1:0.444444 2:1 3:1 4:0.555556 5:0.111111 6:0.444444 7:0.222222 8:0.222222 9:0.444444 10:1 11:0.25 12:0.125 15:0.125 16:0.875 17:0.875 19:0.125 20:0.625 21:0.375 22:0.25 23:0.5 24:0.25 25:0.375 26:0.125 28:0.444444 29:0.444444 30:0.333333 31:0.111111 32:0.888889 35:0.888889 36:0.888889 37:0.666667 38:0.111111 39:0.555556 40:0.555556 41:0.666667 42:0.444444 43:0.333333 44:0.333333 45:0.333333 46:0.111111 47:0.875 48:0.375 49:0.25 50:0.375 51:0.375 52:0.25 53:0.875 54:0.875 55:0.375 56:0.25 57:0.875 59:0.125 60:0.5 61:0.125 62:0.25 63:0.25 64:0.375 65:0.111111 66:0.111111 67:0.222222 68:0.444444 69:0.888889 72:0.888889 73:0.555556 74:0.666667 75:0.789474 76:0.478261 77:0.26087 78:0.130435 79:0.130435 80:0.26087 81:0.652174 82:0.652174 83:0.130435 84:0.26087 85:0.304348 86:0.521739 87:0.391304 89:0.391304 90:0.608696 91:0.26087 92:0.130435 93:0.541667 94:0.541667 95:0.416667 96:0.166667 100:1 101:0.09375 102:0.653021 103:0.61426 104:0.607023 105:0.65562 106:0.694444 107:0.333333 108:0.25 109:0.25 110:1 
0.8124387076266957 1:0.222222 2:0.444444 3:0.888889 4:0.222222 5:0.444444 6:0.333333 7:0.444444 8:0.333333 9:1 10:1 11:0.25 13:0.375 15:0.375 16:0.25 17:0.375 18:0.375 19:0.375 20:0.25 22:0.375 24:0.375 25:0.375 26:0.75 27:0.25 28:0.333333 29:0.444444 30:0.444444 31:0.333333 32:1 35:1 36:0.444444 37:0.444444 38:0.333333 39:0.111111 40:0.666667 41:0.333333 42:0.111111 43:0.222222 44:0.111111 45:0.444444 46:0.888889 47:0.625 48:0.375 49:0.375 51:0.375 53:0.125 57:0.125 58:0.375 59:0.25 60:0.375 63:0.5 64:0.375 65:0.222222 66:0.111111 67:0.111111 68:0.222222 69:0.666667 72:0.666667 73:0.111111 74:0.111111 75:0.684211 76:0.478261 77:0.130435 78:0.521739 79:0.130435 80:0.521739 81:0.391304 82:0.521739 83:0.521739 84:0.521739 85:0.391304 86:0.130435 87:0.608696 88:0.130435 89:0.521739 90:0.521739 91:0.347826 92:0.478261 93:0.416667 94:0.541667 95:0.541667 96:0.416667 100:1 101:0.15625 102:0.614035 103:0.638026 104:0.640468 105:0.639769 106:0.642857 109:0.5 110:1 
1.415460796626454 9:0.555556 10:0.142857 11:0.375 13:0.25 14:0.375 15:0.25 17:0.75 18:0.75 19:0.75 20:0.5 21:0.125 23:0.25 24:0.5 25:0.5 26:0.125 27:0.125 28:0.111111 29:1 30:0.333333 31:0.333333 32:0.111111 33:0.444444 35:0.444444 36:0.444444 37:0.666667 46:1 47:0.25 48:0.25 49:0.375 50:0.125 52:0.125 53:0.375 54:1 55:1 56:0.5 57:0.75 58:0.25 59:0.375 60:0.125 61:0.625 62:0.75 63:0.25 64:0.25 65:0.444444 66:0.555556 67:0.222222 68:0.222222 69:0.444444 70:0.333333 72:0.333333 73:0.333333 74:0.555556 75:0.315789 76:0.608696 77:0.130435 78:0.391304 79:0.521739 80:0.391304 81:0.130435 82:0.782609 83:0.782609 84:0.347826 85:0.0869565 86:0.26087 87:0.130435 88:0.391304 89:0.0434783 90:0.0869565 91:0.26087 92:0.26087 93:0.166667 94:0.875 95:0.416667 96:0.416667 97:0.166667 100:0.333333 101:0.140625 102:0.594542 103:0.619744 104:0.652174 105:0.700288 106:0.59127 107:0.166667 108:0.75 109:0.5 
1.380907260738768 5:1 6:1 7:0.555556 8:0.555556 9:0.444444 11:0.25 13:0.75 14:0.375 15:0.125 16:0.375 17:1 18:1 19:1 20:1 21:0.375 22:0.25 23:0.875 24:0.25 26:0.375 27:0.25 28:1 29:0.444444 30:0.222222 31:0.444444 32:0.444444 33:0.777778 34:0.666667 42:0.666667 43:0.555556 44:0.555556 45:0.666667 46:0.111111 47:0.375 48:0.125 49:0.375 50:0.75 52:0.25 54:0.875 55:0.625 56:0.625 57:0.5 59:0.125 60:1 61:0.125 62:0.375 64:0.125 65:0.666667 66:0.333333 67:0.333333 68:0.333333 69:0.111111 70:0.555556 71:0.888889 75:0.157895 76:0.391304 77:0.130435 78:0.434783 79:0.521739 80:0.26087 81:0.521739 82:1 83:0.913043 84:0.913043 85:0.869565 86:0.521739 87:0.391304 88:0.826087 89:0.391304 90:0.130435 91:0.521739 92:0.391304 93:0.916667 94:0.625 95:0.291667 96:0.625 97:0.541667 98:0.375 99:0.333333 101:0.109375 102:0.740741 103:0.756856 104:0.777592 105:0.808357 106:0.819643 107:0.333333 108:0.75 109:0.25 
0.7649256779963398 1:0.444444 2:0.111111 3:0.111111 4:0.333333 5:0.333333 6:0.222222 7:0.444444 8:0.444444 9:0.222222 10:0.428571 11:0.25 12:0.375 13:0.125 14:0.375 16:0.625 17:0.375 19:0.125 20:0.375 21:0.25 22:0.25 24:0.25 26:0.125 27:0.5 28:0.222222 29:0.444444 30:0.333333 31:0.333333 32:0.888889 35:0.888889 36:0.555556 37:0.777778 38:0.111111 39:0.444444 40:0.444444 41:0.222222 42:0.222222 43:0.333333 44:0.111111 45:0.333333 46:0.333333 47:0.25 48:0.125 50:0.25 51:0.25 52:0.375 53:0.5 55:0.375 56:0.25 58:0.125 59:0.125 60:0.375 61:0.125 62:0.375 63:0.25 64:0.5 65:0.333333 66:0.111111 67:0.222222 68:0.222222 69:0.666667 72:0.666667 73:0.555556 74:0.555556 75:0.736842 76:0.391304 77:0.521739 78:0.26087 79:0.608696 80:0.130435 81:0.173913 82:0.521739 83:0.130435 84:0.26087 85:0.521739 86:0.391304 87:0.391304 88:0.130435 89:0.391304 90:0.130435 91:0.26087 93:0.291667 94:0.541667 95:0.416667 96:0.416667 100:1 101:0.09375 102:0.362573 103:0.38574 104:0.337793 105:0.327089 106:0.452381 107:0.166667 
1.390359672185597 1:0.333333 2:0.222222 3:0.222222 4:0.111111 5:0.666667 6:0.888889 7:0.333333 8:0.333333 9:0.333333 11:0.125 12:1 13:1 14:1 15:1 16:1 17:1 18:1 20:0.25 21:0.375 23:0.25 25:0.25 26:0.25 27:1 28:0.333333 29:0.111111 30:0.333333 31:0.333333 32:0.555556 33:0.555556 34:0.444444 35:1 36:0.555556 37:0.555556 38:0.222222 39:0.333333 40:0.333333 41:0.444444 42:0.666667 43:0.777778 44:0.444444 45:0.222222 46:0.222222 47:0.375 48:0.25 49:0.75 50:0.5 51:0.625 52:0.625 53:0.5 54:0.875 55:0.875 56:0.375 57:0.125 59:0.375 60:0.125 61:0.375 62:0.375 63:0.125 64:0.75 65:0.444444 66:0.444444 67:0.222222 68:0.222222 69:0.555556 70:0.777778 71:0.111111 72:0.555556 73:0.555556 74:0.666667 75:0.157895 76:0.26087 77:0.956522 78:0.869565 79:0.913043 80:0.913043 81:0.869565 82:1 83:1 84:0.130435 85:0.391304 86:0.521739 87:0.130435 88:0.391304 89:0.130435 90:0.478261 91:0.391304 92:0.956522 93:0.5 94:0.166667 95:0.416667 96:0.416667 97:0.0416667 98:0.125 99:0.541667 101:0.34375 102:0.535283 103:0.534918 104:0.559532 105:0.526801 106:0.69246 107:1 108:0.25 
1.403399373309941 1:0.444444 2:0.333333 3:0.444444 4:0.111111 5:0.222222 6:0.222222 7:0.111111 8:0.888889 9:0.333333 10:0.428571 11:0.75 12:0.625 13:0.625 14:0.125 15:0.375 16:0.375 20:0.25 21:0.25 22:0.375 23:0.25 24:0.5 26:0.125 27:0.125 28:1 29:0.222222 30:0.555556 31:0.333333 32:0.444444 33:0.777778 35:0.777778 36:0.222222 37:0.111111 38:0.333333 39:0.444444 40:0.111111 41:0.444444 42:0.333333 43:0.333333 44:0.444444 45:0.888889 46:0.222222 48:1 49:1 50:0.5 51:0.25 54:0.375 55:0.375 56:0.375 57:0.125 58:0.125 60:0.125 61:0.5 62:0.375 63:0.25 64:0.25 65:0.888889 66:0.333333 67:0.666667 68:0.222222 69:0.111111 70:0.555556 72:0.555556 73:0.333333 74:0.444444 75:0.631579 76:0.782609 77:0.73913 78:0.173913 79:0.26087 80:0.521739 81:0.521739 82:0.130435 83:0.130435 84:0.130435 85:0.391304 86:0.391304 87:0.521739 88:0.391304 90:0.130435 91:0.26087 92:0.26087 93:1 94:0.291667 95:0.0833333 96:0.416667 97:0.541667 100:1 101:0.15625 102:0.670565 103:0.691042 104:0.665552 105:0.635447 106:0.676587 107:0.333333 109:0.5 
1.491116372367527 7:0.888889 8:0.333333 9:0.888889 11:0.375 12:0.25 13:0.375 15:0.375 16:0.25 17:0.875 18:0.25 19:0.375 20:0.25 21:0.125 23:0.375 24:0.25 25:1 26:0.375 27:0.25 28:0.222222 29:0.111111 30:0.444444 31:0.333333 32:0.444444 33:0.111111 35:0.111111 36:0.444444 37:0.333333 44:0.555556 45:0.222222 46:1 47:0.375 49:0.375 51:0.375 53:0.125 54:0.875 55:0.125 57:0.375 58:0.25 59:0.375 61:0.375 62:0.875 64:0.375 65:0.333333 66:0.444444 67:0.111111 68:0.444444 69:0.111111 70:0.444444 72:0.444444 73:0.111111 74:0.444444 75:0.157895 76:0.521739 77:0.478261 78:0.521739 79:0.130435 80:0.521739 81:0.391304 82:0.652174 83:0.391304 84:0.521739 85:0.478261 86:0.26087 87:0.130435 88:0.521739 89:0.478261 90:1 91:0.521739 92:0.478261 93:0.291667 94:0.166667 95:0.541667 96:0.5 97:0.541667 101:0.203125 102:0.612086 103:0.619744 104:0.652174 105:0.700288 106:0.573413 107:0.166667 109:0.25 
1.41075832160713 1:0.444444 2:0.333333 3:1 4:1 5:1 6:1 7:0.222222 8:0.222222 9:0.333333 10:0.142857 11:0.125 12:0.25 13:0.375 14:0.125 15:1 16:1 17:0.25 18:0.125 19:0.125 20:1 21:1 22:1 23:0.25 24:0.125 25:0.625 26:0.5 27:0.125 28:0.222222 29:0.222222 30:0.777778 31:0.111111 32:0.333333 33:0.222222 34:0.222222 35:0.555556 38:0.111111 39:0.222222 40:0.555556 41:0.888889 42:0.666667 43:0.555556 44:0.333333 45:0.333333 46:0.444444 47:0.25 48:0.25 49:0.375 51:0.25 52:0.5 53:0.5 54:0.125 55:0.25 56:0.25 57:0.5 58:0.5 59:0.625 60:0.125 61:0.25 62:0.625 63:0.625 64:0.25 65:0.333333 66:0.333333 67:1 68:0.444444 69:0.222222 70:0.333333 71:0.333333 72:0.777778 75:0.315789 76:0.26087 77:0.478261 78:0.521739 79:0.26087 80:0.869565 81:0.869565 82:0.391304 83:0.26087 84:0.26087 85:0.869565 86:0.869565 87:0.913043 88:0.391304 89:0.26087 90:0.217391 91:0.0434783 92:0.26087 93:0.291667 94:0.291667 95:0.791667 96:0.166667 97:0.416667 98:0.291667 99:0.291667 100:0.333333 101:0.140625 102:0.491228 103:0.462523 104:0.489967 105:0.560519 106:0.59127 107:0.333333 108:0.5 
1.387301696710696 6:0.777778 7:0.888889 8:0.666667 9:0.555556 10:0.857143 11:0.875 12:0.75 13:0.875 14:0.125 15:0.375 16:0.25 17:1 18:0.25 19:0.25 20:0.125 21:1 22:1 23:0.25 24:0.25 26:0.125 28:0.333333 29:0.666667 30:0.888889 31:0.333333 32:0.222222 33:0.111111 34:0.333333 35:0.333333 36:0.555556 37:0.555556 43:1 44:1 45:1 46:1 47:1 48:1 49:1 50:1 51:0.25 53:0.125 54:0.5 55:0.125 56:0.125 57:0.25 58:0.875 59:0.875 60:0.125 61:0.375 62:0.375 63:0.25 64:0.375 65:0.222222 66:1 67:1 68:0.444444 69:0.333333 70:0.444444 71:0.222222 72:0.222222 73:0.666667 74:0.555556 75:0.947368 76:0.826087 77:0.782609 78:0.826087 79:0.26087 80:0.521739 81:0.391304 82:0.869565 83:0.391304 84:0.391304 85:0.26087 86:1 87:1 88:0.391304 89:0.478261 90:0.130435 91:0.26087 92:0.130435 93:0.416667 94:0.75 95:0.833333 96:0.5 97:0.291667 98:0.166667 99:0.416667 100:0.666667 101:0.515625 102:0.734893 103:0.751371 104:0.772575 105:0.804035 106:0.688492 107:0.5 108:0.25 109:1 110:1 
1.346412886186958 2:0.888889 3:0.333333 4:0.222222 5:0.444444 6:0.111111 7:0.666667 8:0.888889 9:0.444444 10:0.142857 11:0.875 12:0.125 13:0.125 14:0.375 15:0.25 17:1 18:0.75 19:0.625 20:0.625 21:0.5 22:0.375 23:0.375 24:0.125 25:0.375 26:0.25 28:0.333333 29:0.222222 30:0.222222 31:0.888889 32:0.666667 33:0.111111 35:0.111111 36:0.111111 37:0.444444 39:0.666667 40:0.222222 41:0.333333 42:0.111111 43:0.444444 44:1 45:1 46:0.111111 47:0.25 48:1 49:0.25 50:0.25 52:0.125 53:0.375 54:0.75 55:0.875 56:0.875 57:0.875 58:0.5 60:0.25 61:0.25 63:0.125 64:0.375 65:0.444444 66:0.333333 67:0.333333 68:1 69:1 70:0.444444 72:0.444444 73:0.444444 74:0.111111 75:0.315789 76:0.826087 77:0.26087 78:0.26087 79:0.521739 80:0.391304 81:0.130435 82:0.956522 83:0.478261 84:0.304348 85:0.304348 87:0.521739 88:0.608696 89:0.26087 90:0.521739 91:0.391304 92:0.130435 93:0.5 94:0.291667 95:0.291667 96:0.833333 97:0.75 100:0.333333 101:0.234375 102:0.651072 103:0.672761 104:0.700669 105:0.677233 106:0.704563 107:0.166667 108:1 109:0.5 
1.396263010592898 5:0.888889 6:0.222222 7:0.222222 8:0.444444 9:0.666667 10:0.142857 11:1 12:0.125 13:0.125 14:0.25 15:0.25 16:0.5 17:0.25 18:0.125 19:0.125 21:0.75 22:0.25 24:0.375 25:0.75 26:0.625 27:0.5 28:0.777778 29:0.222222 30:0.444444 31:0.666667 32:0.555556 33:0.111111 35:0.111111 36:0.333333 37:0.222222 42:1 43:0.333333 44:0.333333 45:0.111111 46:0.666667 47:0.25 48:0.875 49:0.25 50:0.25 51:0.375 52:0.125 53:0.75 54:0.125 55:0.25 56:0.25 57:0.375 58:0.75 59:0.375 60:0.375 62:1 63:1 64:1 65:1 66:0.333333 67:0.111111 68:0.666667 69:0.666667 70:0.444444 72:0.444444 73:0.222222 74:0.333333 75:0.315789 76:1 77:0.26087 78:0.26087 79:0.478261 80:0.391304 81:0.0869565 82:0.391304 83:0.26087 84:0.26087 85:0.130435 86:0.434783 87:0.478261 88:0.130435 89:0.521739 90:0.782609 91:0.73913 92:0.695652 93:0.791667 94:0.291667 95:0.541667 96:0.25 97:0.0833333 100:0.333333 101:0.34375 102:0.756335 103:0.771481 104:0.745819 105:0.78098 106:0.700397 107:0.166667 108:0.25 109:0.5 
1.231200565860233 7:0.111111 8:0.222222 9:0.222222 10:1 11:0.125 12:0.25 13:0.875 14:0.25 15:0.25 16:0.125 17:0.625 18:0.875 19:0.75 20:0.25 21:0.375 22:0.125 23:0.875 24:0.625 25:0.125 27:0.375 28:0.444444 29:0.555556 30:0.444444 31:0.444444 32:0.888889 35:0.888889 36:0.777778 37:0.111111 44:0.444444 45:0.333333 46:0.333333 47:0.875 48:0.25 49:0.125 50:0.875 51:0.125 52:0.125 53:0.25 54:1 55:0.875 56:0.75 57:0.125 59:0.25 60:0.75 61:0.5 62:0.25 63:0.375 64:0.25 65:0.333333 66:1 67:0.111111 68:0.333333 69:0.777778 72:0.777778 73:0.888889 74:0.444444 75:0.789474 76:0.26087 77:0.391304 78:0.652174 79:0.391304 80:0.391304 81:0.26087 82:0.73913 83:0.652174 84:0.434783 85:0.391304 86:0.521739 87:0.26087 88:0.608696 89:0.173913 90:0.26087 91:0.130435 92:0.608696 93:0.625 94:0.708333 95:0.541667 96:0.625 100:1 101:0.203125 102:0.699805 103:0.687386 104:0.714047 105:0.753602 106:0.72619 107:0.333333 108:0.5 109:0.25 110:1 
1.351312319703016 3:0.777778 4:0.555556 5:0.111111 6:0.333333 7:0.333333 8:0.222222 9:0.666667 10:1 11:0.125 12:1 13:1 14:0.875 15:0.25 16:0.125 18:0.25 19:0.25 20:0.25 21:0.375 22:0.375 23:0.875 24:0.25 25:0.125 26:0.875 27:0.875 28:0.888889 29:0.333333 30:0.111111 31:0.333333 32:0.333333 33:0.888889 34:0.555556 35:0.555556 40:0.888889 41:0.777778 42:0.444444 43:0.222222 44:0.444444 45:0.333333 46:0.555556 47:0.75 48:0.25 49:0.875 50:0.625 51:0.875 52:0.375 53:0.25 54:0.375 55:0.125 56:0.125 57:0.125 60:0.625 61:0.375 62:0.25 63:0.875 64:0.625 65:0.666667 66:0.444444 67:0.444444 68:0.222222 69:0.222222 70:0.888889 71:0.888889 72:0.888889 75:0.736842 76:0.26087 77:1 78:0.913043 79:0.652174 80:0.478261 81:0.26087 82:0.130435 83:0.391304 84:0.391304 85:0.391304 86:0.521739 87:0.521739 88:0.565217 89:0.478261 90:0.26087 91:0.652174 92:0.565217 93:0.583333 94:0.5 95:0.166667 96:0.416667 97:0.416667 98:0.666667 100:1 101:0.109375 102:0.612086 103:0.625229 104:0.617057 105:0.65562 106:0.70754 107:0.5 109:0.5 110:1 
1.343099834516014 7:0.222222 8:0.111111 9:0.333333 10:0.428571 11:0.25 12:0.375 13:0.375 14:0.125 16:0.375 17:0.75 18:0.375 20:0.25 21:1 22:0.5 23:0.375 24:0.25 25:0.375 26:0.875 27:0.875 28:0.111111 29:0.111111 30:0.333333 31:0.222222 32:0.888889 33:0.222222 35:0.222222 36:0.444444 37:0.888889 44:0.333333 45:0.444444 46:0.222222 47:0.25 48:0.125 51:0.25 52:0.375 53:0.25 54:1 56:0.375 57:0.125 58:0.75 59:0.5 61:0.125 62:0.25 63:0.875 64:0.875 65:0.444444 66:0.444444 67:0.444444 68:0.333333 69:1 70:0.333333 72:0.333333 73:0.111111 74:0.888889 75:0.736842 76:0.391304 77:0.521739 78:0.521739 79:0.26087 80:0.130435 81:0.608696 82:0.782609 83:0.521739 84:0.130435 85:0.391304 86:0.956522 88:0.521739 89:0.391304 90:0.608696 91:0.652174 92:0.652174 93:0.166667 94:0.166667 95:0.5 96:0.291667 97:0.833333 100:1 101:0.140625 102:0.695906 103:0.667276 104:0.695652 105:0.737752 106:0.779762 107:0.166667 108:0.25 
1.285577676453473 1:0.222222 2:0.333333 3:0.777778 4:0.222222 5:0.111111 6:0.333333 7:1 8:0.555556 9:0.555556 10:1 11:0.625 13:0.125 14:0.375 15:0.75 16:0.875 17:0.375 18:0.125 20:0.25 22:0.625 23:0.5 24:0.25 25:0.25 26:0.125 27:0.25 28:1 29:0.333333 30:0.111111 31:0.333333 32:0.111111 33:0.222222 35:0.222222 36:0.777778 37:0.777778 38:0.333333 39:0.444444 40:1 41:0.333333 42:0.444444 43:0.222222 44:0.555556 45:0.666667 46:0.666667 47:0.5 48:0.625 49:0.375 50:0.25 52:0.75 53:0.875 55:0.25 56:0.375 57:0.125 58:0.375 59:1 60:0.625 61:0.125 62:0.125 63:0.25 64:0.125 65:0.888889 66:0.666667 67:0.888889 68:0.444444 69:0.444444 70:0.222222 72:0.222222 73:0.444444 74:0.333333 75:0.631579 76:0.217391 77:0.130435 78:0.26087 79:0.521739 80:0.434783 81:0.652174 82:0.521739 83:0.26087 84:0.130435 85:0.391304 86:0.130435 87:0.73913 88:0.0434783 89:0.391304 90:0.391304 91:0.26087 92:0.391304 93:1 94:0.416667 95:0.166667 96:0.5 97:0.166667 100:1 101:0.109375 102:0.71345 103:0.731261 104:0.754181 105:0.768012 106:0.684524 107:0.333333 109:1 110:1 
1.142384458604188 1:1 2:0.555556 3:0.888889 4:0.444444 5:0.222222 6:0.222222 7:1 8:0.555556 9:0.777778 10:1 11:0.25 12:0.25 13:0.125 14:0.125 15:1 16:0.125 17:0.375 18:0.25 19:0.5 20:0.125 21:0.375 22:0.75 23:0.5 25:0.25 27:0.125 28:0.222222 29:0.111111 30:0.333333 31:0.222222 32:0.111111 33:0.333333 35:0.333333 36:0.444444 37:0.444444 38:0.777778 39:0.888889 40:0.666667 41:0.111111 42:0.333333 43:0.333333 44:0.555556 45:0.555556 46:0.555556 47:0.875 48:0.125 49:0.125 50:0.25 51:0.25 52:0.5 53:0.25 55:0.125 56:1 57:0.25 59:0.5 60:0.625 61:0.375 62:0.375 63:0.375 64:0.25 65:0.333333 66:0.444444 67:0.444444 68:0.333333 69:0.444444 70:0.222222 72:0.222222 73:0.333333 74:0.333333 75:0.789474 76:0.391304 77:0.391304 78:0.26087 79:0.26087 80:0.869565 81:0.26087 82:0.521739 83:0.391304 84:0.695652 85:0.26087 86:0.521739 87:0.347826 88:0.0434783 89:0.130435 90:0.478261 91:0.130435 92:0.26087 93:0.291667 94:0.166667 95:0.5 96:0.291667 97:0.166667 100:1 101:0.171875 102:0.545809 103:0.57404 104:0.602007 105:0.619597 106:0.468254 107:0.166667 108:0.25 109:0.75 110:1 
0.7987906973221964 1:0.333333 2:0.333333 3:0.444444 4:0.444444 5:0.333333 6:0.333333 7:0.888889 8:0.333333 9:0.222222 14:0.25 15:0.375 17:0.625 18:0.375 19:0.375 20:0.25 21:0.125 22:0.25 23:0.25 24:0.5 25:0.375 26:0.375 27:0.375 28:0.444444 29:0.333333 30:0.222222 31:0.444444 32:0.888889 35:0.888889 36:0.888889 37:0.555556 38:0.222222 39:0.222222 40:0.111111 41:0.111111 42:0.222222 43:0.444444 44:0.888889 45:0.222222 46:0.333333 47:0.375 48:0.375 49:0.375 50:0.375 51:0.375 53:0.375 54:0.875 57:0.125 58:0.25 59:0.125 60:0.125 61:0.5 65:0.111111 66:0.222222 67:0.333333 68:0.333333 69:0.888889 72:0.888889 73:0.555556 74:0.555556 75:0.157895 76:0.130435 77:0.130435 78:0.130435 79:0.478261 80:0.521739 81:0.130435 82:0.304348 83:0.521739 84:0.521739 85:0.391304 86:0.26087 87:0.391304 88:0.391304 90:0.521739 91:0.521739 92:0.521739 93:0.541667 94:0.416667 95:0.291667 96:0.625 101:0.09375 102:0.499025 103:0.508227 104:0.550167 105:0.501441 106:0.650794 107:0.166667 
1.325138334189717 1:0.555556 2:0.777778 3:0.777778 4:0.888889 5:0.888889 6:0.777778 7:0.888889 8:0.888889 9:0.222222 10:0.428571 11:0.25 12:0.25 13:0.25 14:0.375 15:0.25 16:0.25 17:0.375 18:0.125 19:0.375 20:0.25 21:0.25 23:0.25 25:0.375 26:0.375 27:0.375 28:0.333333 29:0.444444 30:0.333333 31:0.222222 32:0.111111 35:0.111111 36:0.333333 37:0.666667 38:1 39:1 40:0.555556 41:0.888889 42:0.888889 43:0.888889 44:0.666667 45:0.888889 46:0.333333 48:0.375 49:0.375 50:0.125 52:0.125 53:0.125 55:0.25 56:0.25 57:0.125 58:0.125 59:0.375 60:0.125 61:0.375 65:0.222222 66:0.111111 67:0.222222 68:0.333333 69:0.444444 72:0.444444 73:0.222222 74:0.666667 75:0.631579 76:0.478261 77:0.478261 78:0.391304 79:0.521739 80:0.391304 81:0.391304 82:0.521739 83:0.26087 84:0.608696 85:0.391304 86:0.391304 87:0.130435 88:0.391304 89:0.130435 90:0.521739 91:0.521739 92:0.521739 93:0.416667 94:0.541667 95:0.416667 96:0.291667 100:1 101:0.125 102:0.22807 103:0.276051 104:0.337793 105:0.429395 106:0.218254 109:0.25 
1.089504226562741 1:0.333333 2:0.333333 3:0.444444 4:0.444444 5:0.333333 6:0.333333 7:0.444444 8:0.333333 9:0.222222 11:0.5 14:0.25 15:0.375 17:0.875 18:0.375 19:0.375 20:0.25 21:0.125 22:0.25 23:0.25 24:0.75 25:0.375 26:0.375 27:0.375 28:0.444444 29:0.333333 30:0.444444 31:0.222222 32:0.333333 35:0.333333 36:0.444444 37:0.555556 38:0.222222 39:0.222222 40:0.111111 41:0.111111 42:0.222222 43:0.222222 44:0.111111 45:0.222222 46:0.333333 47:0.375 48:0.75 49:0.375 50:0.375 51:0.125 53:0.375 54:0.875 55:0.25 57:0.125 58:0.25 59:0.375 60:0.125 61:0.5 65:0.111111 66:0.222222 67:0.333333 68:0.333333 69:0.444444 72:0.444444 73:0.111111 74:0.555556 75:0.157895 76:0.0869565 77:0.130435 78:0.130435 79:0.391304 80:0.521739 81:0.130435 82:0.652174 83:0.608696 84:0.521739 85:0.391304 86:0.26087 87:0.478261 88:0.391304 89:0.347826 90:0.521739 91:0.521739 92:0.521739 93:0.541667 94:0.416667 95:0.625 96:0.291667 101:0.125 102:0.60039 103:0.59415 104:0.5301 105:0.472622 106:0.628968 107:0.166667 109:0.25 
1.466260005400508 1:1 2:1 3:1 4:1 5:1 6:0.666667 7:0.444444 8:0.111111 9:0.111111 12:0.625 13:0.375 14:0.25 15:0.25 17:0.375 18:0.625 19:0.5 21:0.375 22:0.375 24:0.375 25:0.5 26:0.75 27:0.25 28:0.111111 29:0.333333 30:0.888889 31:0.777778 32:0.111111 35:0.111111 36:0.111111 37:0.555556 38:0.555556 39:0.555556 40:0.777778 41:0.555556 42:0.555556 43:0.555556 44:0.111111 45:0.444444 46:0.444444 47:0.375 48:0.375 49:0.875 51:0.375 52:0.125 53:0.375 55:0.5 56:0.5 57:0.375 60:0.375 61:0.25 62:0.75 63:0.875 64:0.375 65:0.444444 66:0.222222 67:0.777778 68:0.888889 69:0.444444 72:0.444444 73:0.444444 74:0.666667 75:0.157895 76:0.130435 77:0.304348 78:0.521739 79:0.478261 80:0.391304 81:0.130435 82:0.521739 83:0.173913 85:0.130435 86:0.521739 87:0.521739 88:0.130435 89:0.608696 90:0.0869565 91:0.478261 92:0.478261 93:0.166667 94:0.416667 95:0.625 96:0.5 101:0.328125 102:0.808967 103:0.797075 104:0.799331 105:0.827089 106:0.801587 107:0.166667 108:0.5 
1.358116290042994 1:0.444444 2:1 3:0.555556 4:0.888889 5:0.222222 6:0.222222 7:0.444444 8:0.888889 9:0.777778 10:0.571429 12:0.375 13:0.25 14:0.25 16:0.375 17:0.375 18:1 19:1 20:1 21:1 22:1 23:1 24:1 25:0.375 26:0.375 27:0.375 28:0.333333 29:0.333333 30:0.555556 31:0.777778 32:0.222222 33:0.111111 34:0.333333 35:0.777778 38:0.333333 39:0.555556 40:0.888889 41:0.666667 42:0.333333 43:0.333333 44:0.111111 45:1 46:1 47:1 48:0.375 50:0.125 51:0.125 52:0.375 55:0.625 56:0.875 57:0.5 58:0.5 59:0.5 60:0.75 61:0.75 65:0.222222 66:0.222222 67:0.666667 68:0.555556 69:0.333333 70:0.444444 71:0.222222 72:0.777778 75:0.842105 76:0.130435 77:0.521739 78:0.391304 79:0.391304 80:0.130435 81:0.521739 82:0.521739 83:0.913043 84:1 85:0.869565 86:0.869565 87:0.869565 88:0.956522 89:0.956522 90:0.521739 91:0.521739 92:0.521739 93:0.416667 94:0.416667 95:0.0833333 96:0.375 97:0.291667 98:0.166667 99:0.416667 101:0.1875 102:0.626901 103:0.650091 104:0.619732 105:0.66513 106:0.663889 108:1 109:0.75 110:1 
1.419810437096996 1:1 2:1 3:1 4:1 5:1 6:1 7:0.888889 8:0.888889 9:0.888889 10:0.571429 11:0.625 12:0.125 13:0.375 14:0.375 15:0.125 16:0.375 17:0.375 18:0.25 19:0.375 20:0.5 21:0.875 22:0.5 23:0.5 24:0.25 25:0.625 27:0.125 28:0.444444 29:0.777778 30:0.444444 31:0.333333 32:0.222222 35:0.222222 36:0.444444 37:0.111111 38:0.777778 39:0.555556 40:0.666667 41:0.555556 42:0.555556 43:0.888889 44:0.777778 45:0.555556 46:0.555556 47:0.5 48:0.5 49:0.25 52:0.25 55:0.125 57:1 58:1 59:0.625 60:0.5 61:0.125 62:0.5 63:0.375 64:0.25 65:0.111111 66:0.777778 67:0.111111 68:0.222222 69:0.333333 72:0.333333 73:0.111111 74:0.444444 76:0.173913 77:0.26087 78:0.521739 79:0.521739 80:0.26087 81:0.521739 82:0.521739 83:0.391304 84:0.521739 85:0.695652 86:0.826087 87:0.0434783 89:0.391304 90:0.173913 91:0.130435 92:0.26087 93:0.541667 94:0.458333 95:0.541667 96:0.416667 101:0.46875 102:0.764133 103:0.778793 104:0.797659 105:0.825648 106:0.656746 108:0.5 109:1 110:1 
0.7974541299277041 1:0.333333 2:0.111111 3:0.111111 4:0.444444 5:0.222222 6:0.222222 7:0.555556 8:0.111111 9:0.111111 11:0.25 12:0.5 13:0.25 14:0.5 16:0.25 19:0.25 21:0.375 22:0.125 24:0.25 25:0.125 26:0.125 27:0.375 28:0.333333 29:0.222222 30:0.111111 31:0.777778 32:0.555556 35:0.555556 36:0.888889 37:0.777778 38:0.222222 39:0.444444 40:0.444444 41:0.111111 42:0.333333 43:0.333333 44:0.777778 45:0.444444 46:0.444444 47:0.375 48:0.125 49:0.625 50:0.125 51:0.625 52:0.375 53:0.125 54:0.375 55:0.375 56:0.125 57:0.375 59:0.25 60:0.375 61:0.125 62:0.25 63:0.25 65:0.222222 66:0.333333 67:0.444444 68:1 69:1 72:1 73:0.555556 74:0.555556 75:0.157895 76:0.391304 77:0.0434783 78:0.391304 79:0.0434783 80:0.130435 81:0.391304 82:0.130435 83:0.130435 84:0.391304 85:0.130435 86:0.521739 87:0.26087 88:0.130435 89:0.391304 90:0.26087 91:0.26087 92:0.521739 93:0.416667 94:0.291667 95:0.166667 96:0.791667 101:0.1875 102:0.407407 103:0.42596 104:0.428094 105:0.425072 106:0.489286 107:0.333333 
1.406070299007559 1:1 2:1 3:1 4:0.777778 5:0.666667 6:0.888889 7:0.888889 8:0.777778 9:1 10:0.571429 11:0.25 12:0.125 13:0.125 14:0.375 15:0.25 16:0.25 17:0.5 18:0.5 19:0.25 20:0.125 21:0.375 22:0.25 23:0.25 25:0.25 26:0.625 27:0.625 28:0.444444 29:0.333333 30:0.222222 31:0.111111 32:0.333333 35:0.333333 36:0.444444 37:0.333333 38:0.555556 39:0.777778 40:0.888889 41:0.555556 42:0.555556 43:0.555556 44:0.555556 45:0.666667 46:0.555556 47:0.5 48:0.125 49:0.25 50:0.25 52:0.375 53:0.125 54:1 55:1 56:0.125 57:0.25 59:0.125 60:0.125 61:0.375 62:0.125 63:1 64:1 65:0.111111 66:0.444444 67:0.333333 68:0.444444 69:0.222222 72:0.222222 73:0.111111 74:0.222222 76:0.391304 77:0.26087 78:0.26087 79:0.521739 80:0.478261 81:0.391304 82:0.695652 83:0.695652 84:0.391304 85:0.26087 86:0.521739 87:0.391304 88:0.391304 89:0.130435 90:0.391304 91:0.73913 92:0.73913 93:0.541667 94:0.5 95:0.291667 96:0.166667 101:0.203125 102:0.559454 103:0.586837 104:0.622074 105:0.674352 106:0.456349 107:0.166667 108:0.25 109:0.75 110:1 
1.762860637146755 1:0.444444 2:0.333333 3:0.222222 4:0.444444 5:0.444444 6:0.222222 7:0.444444 8:0.222222 9:0.111111 11:0.25 12:0.25 14:0.375 15:0.25 17:0.25 18:0.125 22:0.25 25:0.5 26:0.75 27:0.375 28:0.111111 29:0.333333 30:0.555556 31:0.444444 32:0.444444 35:0.444444 36:0.444444 37:0.444444 38:0.111111 39:0.222222 40:0.333333 41:0.111111 42:0.111111 43:0.333333 44:0.111111 45:0.333333 46:0.444444 47:0.375 48:0.125 49:0.125 50:0.375 52:0.125 53:0.375 54:0.125 55:0.25 56:0.375 57:0.375 58:0.375 59:0.125 60:0.375 61:0.375 62:0.625 63:0.875 65:0.444444 66:0.222222 67:0.555556 68:0.111111 69:0.111111 72:0.111111 73:0.333333 74:0.111111 75:0.157895 76:0.391304 77:0.391304 78:0.130435 79:0.521739 80:0.391304 81:0.130435 82:0.391304 83:0.26087 84:0.130435 85:0.130435 86:0.130435 87:0.391304 88:0.130435 89:0.130435 90:0.0434783 91:0.478261 92:0.521739 93:0.166667 94:0.416667 95:0.0416667 96:0.541667 101:0.1875 102:0.434698 103:0.435101 104:0.408027 105:0.365994 106:0.492063 
1.423329193731474 1:0.888889 2:0.888889 3:0.888889 4:0.333333 5:0.111111 6:0.444444 7:0.333333 8:0.666667 9:0.222222 11:0.75 12:0.25 13:0.125 15:0.375 16:0.375 17:0.25 19:0.125 20:0.375 21:0.375 22:0.125 23:0.375 24:0.125 25:0.5 26:0.625 27:0.375 28:0.111111 29:0.333333 30:0.222222 31:0.444444 32:0.333333 35:0.333333 36:0.888889 37:0.333333 38:1 39:0.888889 40:0.888889 41:0.222222 42:0.444444 43:0.111111 44:0.222222 45:0.555556 46:0.333333 47:0.375 48:0.5 49:0.125 50:0.25 51:0.375 54:0.125 55:0.375 56:0.25 59:0.25 61:0.25 62:0.5 63:0.5 65:0.444444 66:0.222222 67:0.333333 68:0.111111 69:0.444444 72:0.444444 73:0.666667 74:0.222222 75:0.157895 76:0.347826 77:0.391304 78:0.26087 79:0.130435 80:0.521739 81:0.521739 82:0.391304 83:0.130435 84:0.26087 85:0.521739 86:0.521739 87:0.26087 88:0.521739 89:0.26087 91:0.173913 92:0.521739 93:0.166667 94:0.416667 95:0.291667 96:0.541667 101:0.140625 102:0.452242 103:0.486289 104:0.51505 105:0.523055 106:0.484127 109:0.5 
1.335738512802209 1:0.666667 2:0.444444 3:0.444444 4:0.333333 5:0.333333 6:1 7:1 8:0.333333 9:0.333333 10:0.571429 11:0.25 12:0.375 13:0.25 16:0.875 17:0.25 19:0.375 20:0.25 21:0.25 22:0.25 23:0.875 24:0.875 25:0.125 26:1 27:1 28:0.444444 29:0.333333 30:0.111111 31:0.666667 32:0.666667 33:0.666667 34:0.222222 35:0.222222 36:0.222222 37:0.111111 38:0.666667 39:0.111111 40:0.111111 41:0.222222 42:0.222222 43:0.777778 44:0.888889 45:0.666667 46:0.222222 47:0.125 48:0.125 50:0.125 51:0.375 52:0.375 53:0.625 54:0.125 55:0.375 57:0.125 58:0.125 59:0.125 60:0.625 61:0.75 62:0.25 63:0.875 64:0.625 65:0.111111 66:0.222222 67:0.444444 68:1 69:0.555556 70:0.666667 71:0.333333 72:0.333333 73:0.333333 74:0.444444 75:0.0526316 76:0.391304 77:0.521739 78:0.391304 79:0.130435 80:0.130435 81:0.565217 82:0.391304 83:0.130435 84:0.521739 85:0.391304 86:0.391304 87:0.391304 88:0.565217 89:0.608696 90:0.26087 91:1 92:0.913043 93:0.541667 94:0.416667 95:0.166667 96:0.75 97:0.208333 98:0.25 101:0.28125 102:0.645224 103:0.656307 104:0.685619 105:0.690202 106:0.628968 107:0.166667 109:0.25 110:1 
1.358427332177557 1:0.444444 2:1 3:0.666667 4:0.666667 5:0.555556 6:0.333333 7:0.222222 8:0.888889 9:0.666667 10:0.571429 11:0.375 12:0.125 13:0.125 14:0.125 15:0.5 16:0.625 17:0.625 18:0.375 19:0.125 20:0.375 21:0.25 22:1 23:0.125 24:0.125 25:0.5 26:0.125 27:0.125 28:0.555556 29:0.555556 30:0.555556 31:0.555556 32:0.666667 33:0.555556 35:0.555556 36:0.666667 38:0.111111 39:0.555556 40:0.555556 41:0.555556 42:0.666667 43:0.222222 44:0.333333 45:1 46:0.888889 47:0.75 49:0.25 50:0.25 51:0.25 52:1 53:1 54:1 56:0.25 58:0.125 59:0.875 60:0.25 61:0.25 62:1 63:0.25 64:0.25 65:0.666667 66:0.777778 67:0.666667 68:0.888889 69:0.555556 70:0.666667 72:0.666667 73:0.888889 75:0.105263 76:0.521739 77:0.26087 78:0.26087 79:0.26087 80:0.695652 81:0.73913 82:0.73913 83:0.521739 84:0.26087 85:0.521739 86:0.391304 87:1 88:0.26087 89:0.26087 90:0.695652 91:0.26087 92:0.26087 93:0.0833333 94:0.125 95:0.0833333 96:0.166667 97:0.208333 101:0.03125 102:0.744834 103:0.760695 104:0.744314 105:0.779683 106:0.77877 107:0.5 109:0.75 110:1 
1.375558875417388 4:1 5:1 6:0.444444 7:0.333333 8:0.222222 9:0.444444 11:0.375 12:0.25 13:0.25 15:0.875 18:0.25 19:0.25 20:0.625 21:0.375 22:0.375 23:0.875 24:0.75 25:0.25 26:0.625 27:0.375 28:0.444444 29:0.111111 30:0.444444 31:0.777778 32:0.777778 35:0.777778 36:0.333333 37:0.333333 41:0.666667 42:0.777778 43:0.111111 44:0.222222 45:0.333333 46:0.111111 47:0.375 49:0.125 50:0.125 51:0.375 52:0.625 53:0.375 54:0.375 55:0.375 56:0.125 57:0.5 60:0.75 61:0.875 62:0.125 63:1 65:0.333333 66:0.444444 67:0.111111 68:0.777778 69:0.555556 72:0.555556 73:0.222222 74:0.222222 75:0.157895 76:0.521739 77:0.391304 78:0.391304 79:0.130435 80:0.565217 81:0.130435 82:0.130435 83:0.478261 84:0.391304 85:0.173913 86:0.521739 87:0.521739 88:0.608696 89:0.478261 90:0.391304 91:0.73913 92:0.521739 93:0.625 94:0.166667 95:0.541667 96:0.458333 101:0.28125 102:0.709552 103:0.665448 104:0.653846 105:0.701729 106:0.765873 107:0.166667 108:0.25 
1.384274725428009 1:0.111111 2:0.444444 3:1 4:1 5:1 6:0.777778 7:0.333333 8:0.444444 9:0.777778 10:0.571429 11:0.875 12:0.25 13:0.25 14:0.25 15:0.375 16:0.75 19:1 20:1 21:1 22:1 23:1 24:1 25:1 26:0.375 27:0.375 28:0.444444 29:0.777778 30:0.444444 31:0.111111 32:0.333333 33:0.111111 34:0.111111 35:0.777778 36:0.555556 37:0.555556 38:0.444444 39:0.111111 40:0.555556 41:0.777778 42:0.555556 43:0.555556 44:0.222222 45:0.111111 46:0.555556 47:0.625 48:0.875 49:0.375 50:0.125 51:0.125 52:0.25 53:0.75 54:0.375 55:0.375 56:0.875 57:0.875 58:0.875 59:0.5 60:0.5 61:0.875 62:0.625 65:0.333333 66:0.777778 67:0.333333 68:0.444444 69:0.222222 70:0.444444 71:0.444444 72:0.555556 73:0.777778 74:0.555556 75:0.0526316 76:0.652174 77:0.478261 78:0.391304 79:0.391304 80:0.608696 81:0.434783 82:0.130435 83:0.130435 84:1 85:1 86:1 87:0.869565 88:0.869565 89:1 90:0.913043 91:0.521739 92:0.521739 93:0.625 94:0.458333 95:0.625 96:0.166667 97:0.416667 98:0.166667 99:0.166667 101:0.203125 102:0.601559 103:0.622669 104:0.646488 105:0.695389 106:0.659921 107:0.166667 108:0.75 109:0.75 110:1 
1.493824083630406 1:0.222222 2:0.222222 3:0.222222 4:0.222222 5:0.111111 6:0.111111 7:0.111111 8:0.111111 9:0.444444 11:0.375 12:0.25 13:0.25 14:0.375 16:0.625 17:0.125 18:0.625 19:0.375 20:0.25 21:0.25 22:0.125 24:0.375 26:0.125 27:0.375 28:0.333333 29:0.111111 30:0.333333 31:0.444444 32:0.111111 35:0.111111 36:0.444444 37:0.888889 38:0.333333 39:0.333333 40:0.333333 41:0.333333 42:0.444444 43:0.444444 44:0.444444 45:0.444444 46:0.111111 47:0.375 49:0.125 50:0.125 51:0.25 52:0.375 53:0.875 54:0.25 55:0.875 57:0.125 58:0.125 59:0.25 60:0.375 62:0.375 63:0.25 65:0.222222 66:0.444444 67:0.222222 68:0.111111 69:0.444444 72:0.444444 73:0.111111 74:0.666667 75:0.157895 76:0.521739 77:0.391304 78:0.391304 79:0.608696 80:0.130435 81:0.304348 82:0.26087 83:0.304348 84:0.521739 85:0.391304 86:0.391304 87:0.26087 88:0.130435 89:0.521739 90:0.130435 91:0.26087 92:0.521739 93:0.416667 94:0.166667 95:0.416667 96:0.541667 101:0.1875 102:0.401559 103:0.422303 104:0.441472 105:0.338617 106:0.424603 107:0.166667 108:0.25 
1.954890225988693 1:0.111111 2:0.333333 3:0.333333 4:0.444444 5:0.444444 6:0.333333 7:0.333333 8:0.444444 9:0.333333 10:0.142857 15:0.25 16:0.375 19:0.375 20:0.375 21:0.25 22:0.375 23:0.25 24:0.25 25:0.5 26:0.375 27:0.375 28:0.444444 29:0.444444 30:0.333333 31:0.444444 32:0.666667 35:0.666667 36:0.777778 37:0.444444 38:0.444444 39:0.222222 40:0.222222 41:0.111111 42:0.111111 43:0.222222 44:0.222222 45:0.111111 46:0.222222 47:0.25 48:0.375 49:0.375 50:0.375 51:0.375 52:0.125 54:0.375 55:0.375 58:0.125 59:0.25 60:0.125 61:0.125 62:0.625 65:0.111111 66:0.111111 67:0.222222 68:0.333333 69:0.555556 72:0.555556 73:0.888889 74:0.111111 75:0.315789 76:0.130435 77:0.130435 78:0.130435 79:0.130435 80:0.391304 81:0.521739 82:0.130435 83:0.130435 84:0.521739 85:0.521739 86:0.391304 87:0.608696 88:0.391304 89:0.391304 90:0.0434783 91:0.521739 92:0.521739 93:0.541667 94:0.541667 95:0.416667 96:0.625 100:0.333333 101:0.140625 102:0.444444 103:0.431444 104:0.396321 105:0.35879 106:0.565476 
1.219466849072206 1:0.111111 2:0.333333 3:0.333333 4:0.444444 5:0.444444 6:0.333333 7:0.333333 8:0.444444 9:0.333333 10:0.142857 14:0.25 15:0.25 16:0.375 18:0.375 19:0.375 20:0.375 21:0.25 22:0.375 23:0.25 24:0.25 25:0.375 26:0.375 27:0.375 28:0.444444 29:0.444444 30:0.333333 31:0.888889 32:0.222222 35:0.222222 36:0.111111 37:0.444444 38:0.444444 39:0.222222 40:0.222222 41:0.111111 42:0.111111 43:0.222222 44:0.222222 45:0.111111 46:0.222222 47:0.25 48:0.375 49:0.375 50:0.375 51:0.125 52:0.125 54:0.375 58:0.125 60:0.125 61:0.125 62:0.25 65:0.111111 66:0.111111 67:0.222222 68:1 69:0.333333 72:0.333333 73:0.444444 74:0.111111 75:0.315789 76:0.130435 77:0.130435 78:0.130435 79:0.391304 80:0.391304 81:0.521739 82:0.130435 83:0.521739 84:0.521739 85:0.521739 86:0.391304 87:0.521739 88:0.391304 89:0.391304 90:0.608696 91:0.521739 92:0.521739 93:0.541667 94:0.541667 95:0.416667 96:0.833333 100:0.333333 101:0.15625 102:0.346979 103:0.340037 104:0.312709 105:0.286744 106:0.436508 
1.022200148302675 1:0.444444 2:0.444444 3:0.444444 4:0.333333 5:0.333333 6:0.333333 7:0.111111 8:0.666667 9:0.444444 10:0.142857 12:0.25 13:0.25 15:0.375 16:0.25 17:0.375 18:0.25 19:0.25 20:0.375 21:0.125 24:0.25 25:0.375 26:0.25 27:0.375 28:0.444444 29:0.333333 30:0.444444 31:0.444444 32:0.555556 35:0.555556 36:0.555556 37:0.777778 38:0.111111 39:0.111111 40:0.111111 41:0.222222 42:0.222222 43:0.444444 44:0.444444 45:0.555556 46:0.111111 47:0.25 48:0.375 49:0.375 50:0.375 51:0.375 53:0.125 55:0.125 56:0.125 58:0.25 59:0.375 60:0.375 61:0.125 63:0.375 65:0.111111 66:0.222222 67:0.111111 68:0.111111 69:0.777778 72:0.777778 73:0.777778 74:0.555556 75:0.315789 76:0.130435 77:0.478261 78:0.478261 79:0.130435 80:0.521739 81:0.391304 82:0.521739 83:0.391304 84:0.391304 85:0.521739 86:0.26087 87:0.130435 88:0.130435 89:0.391304 90:0.521739 91:0.478261 92:0.521739 93:0.541667 94:0.416667 95:0.541667 96:0.541667 100:0.333333 101:0.15625 102:0.354776 103:0.394881 104:0.434783 105:0.414986 106:0.444444 109:0.25 
1.252372969260136 1:1 2:0.222222 3:0.222222 4:0.111111 5:0.111111 6:0.111111 7:0.444444 8:0.222222 9:0.444444 10:0.142857 11:0.625 12:0.375 13:0.25 14:0.375 15:0.375 16:0.25 19:0.25 20:0.375 21:0.25 22:0.375 25:0.375 26:0.125 27:0.125 28:0.222222 29:0.222222 30:0.111111 31:0.666667 32:0.666667 35:0.666667 36:0.888889 37:0.666667 38:0.555556 39:0.333333 40:0.333333 41:0.444444 42:0.444444 43:0.444444 44:0.111111 45:0.333333 46:0.111111 47:0.25 48:0.875 50:0.125 53:0.125 54:0.375 55:0.375 56:0.375 58:0.125 60:0.375 61:0.375 63:0.25 64:0.25 65:0.333333 66:0.333333 67:0.444444 68:0.888889 69:0.555556 72:0.555556 73:0.666667 74:0.777778 75:0.315789 76:0.304348 77:0.521739 78:0.391304 79:0.521739 80:0.521739 81:0.391304 82:0.130435 83:0.130435 84:0.478261 85:0.521739 86:0.391304 87:0.521739 88:0.130435 89:0.130435 90:0.521739 91:0.26087 92:0.26087 93:0.291667 94:0.291667 95:0.166667 96:0.333333 100:0.333333 101:0.078125 102:0.364522 103:0.369287 104:0.389632 105:0.360231 106:0.473413 109:0.25 
1.486260769530029 4:1 5:1 6:0.444444 7:0.111111 8:0.333333 9:0.222222 10:0.142857 11:0.75 12:0.75 13:0.75 14:0.125 15:0.25 16:0.875 17:0.25 18:0.25 19:0.375 20:0.25 21:0.25 22:0.375 23:0.75 24:0.25 25:0.25 26:0.25 27:0.25 28:0.222222 29:0.222222 30:0.888889 41:0.777778 42:0.555556 43:0.333333 44:0.444444 45:0.222222 46:0.333333 47:0.25 48:1 49:0.5 50:0.75 51:0.25 52:0.375 53:0.875 54:0.375 55:0.125 57:0.375 58:0.125 59:0.25 60:0.5 61:0.125 62:0.125 63:0.125 64:0.375 65:0.333333 66:0.333333 67:0.888889 75:0.315789 76:0.782609 77:0.347826 78:0.434783 79:0.26087 80:0.478261 81:0.652174 82:0.478261 83:0.391304 84:0.521739 85:0.478261 86:0.391304 87:0.608696 88:0.347826 89:0.391304 90:0.391304 91:0.391304 92:0.478261 93:0.291667 94:0.291667 95:0.666667 100:0.333333 101:0.046875 102:0.54191 103:0.541133 104:0.550167 105:0.612392 106:0.653968 107:0.5 109:0.25 
1.359121682719514 1:1 2:1 3:0.888889 4:0.333333 5:0.333333 6:0.333333 7:0.888889 8:0.777778 9:0.222222 10:0.857143 12:0.375 13:0.25 15:0.875 16:0.75 17:0.5 18:0.875 19:0.75 20:0.25 21:0.125 23:0.25 24:0.125 25:1 26:1 27:1 28:0.555556 29:0.555556 30:0.555556 31:0.444444 32:0.444444 33:0.222222 34:0.444444 35:0.333333 36:0.111111 37:1 38:0.888889 39:0.777778 40:0.888889 41:0.222222 42:0.444444 43:0.222222 44:0.777778 45:0.888889 46:0.333333 47:1 48:0.375 49:0.25 50:0.125 51:0.375 52:1 53:0.625 54:1 55:0.75 56:0.5 57:0.125 58:0.25 59:0.375 60:0.125 61:0.25 62:0.75 63:0.5 64:0.875 65:0.777778 66:0.888889 67:0.555556 68:0.111111 69:0.111111 70:0.333333 71:0.111111 72:0.444444 73:0.444444 74:0.666667 75:0.947368 76:0.130435 77:0.608696 78:0.391304 79:0.130435 80:0.826087 81:0.391304 82:0.695652 83:0.608696 84:0.347826 85:0.391304 86:0.26087 87:0.130435 88:0.391304 89:0.26087 90:0.956522 91:0.869565 92:1 93:0.125 94:0.166667 95:0.0416667 96:0.541667 97:0.541667 98:0.291667 99:0.541667 100:0.666667 101:0.484375 102:0.760234 103:0.758684 104:0.719064 105:0.711816 106:0.765873 107:0.5 108:0.5 109:0.5 110:1 
1.030005148685236 1:0.333333 2:0.333333 3:0.444444 4:0.777778 5:0.333333 6:0.333333 7:0.444444 8:0.333333 9:0.222222 14:0.25 15:0.375 18:0.375 19:0.625 20:0.75 21:0.125 22:0.25 23:0.25 24:0.375 25:0.375 26:0.375 27:0.375 28:0.444444 29:0.777778 30:0.888889 31:0.222222 32:0.111111 35:0.111111 36:0.444444 37:0.444444 38:0.222222 39:0.222222 40:0.111111 41:0.777778 42:0.444444 43:0.222222 44:0.111111 45:0.222222 46:0.333333 47:0.375 48:0.375 49:0.375 50:0.375 51:0.125 53:0.375 54:0.375 56:0.5 57:0.75 58:0.25 59:0.375 60:0.125 65:0.111111 66:0.888889 67:0.777778 68:0.333333 69:0.444444 72:0.444444 73:0.111111 74:0.111111 75:0.157895 76:0.130435 77:0.130435 78:0.130435 79:0.391304 80:0.521739 81:0.130435 82:0.130435 83:0.521739 84:0.173913 85:0.434783 86:0.26087 87:0.478261 88:0.391304 89:0.521739 90:0.521739 91:0.521739 92:0.521739 93:0.541667 94:0.5 95:0.625 96:0.291667 101:0.15625 102:0.598441 103:0.592322 104:0.556856 105:0.525937 106:0.660714 108:0.5 
0.6076755054314443 1:0.333333 2:0.333333 3:0.444444 4:0.444444 5:0.333333 6:0.333333 7:0.444444 8:0.333333 9:0.222222 14:0.25 15:0.375 18:0.375 19:0.625 20:0.25 21:0.625 22:0.25 23:0.25 24:0.375 25:0.875 26:0.375 27:0.375 28:0.444444 29:0.333333 30:0.444444 31:0.222222 32:0.111111 35:0.111111 36:0.444444 37:0.444444 38:0.222222 39:0.222222 40:0.111111 41:0.111111 42:0.222222 43:0.222222 44:0.111111 45:0.222222 46:0.333333 47:0.375 48:0.375 49:0.375 50:0.375 51:0.125 53:0.375 54:0.375 56:0.5 57:0.125 58:0.5 59:0.125 60:0.125 62:0.625 65:0.111111 66:0.222222 67:0.333333 68:0.333333 69:0.444444 72:0.444444 73:0.111111 74:0.111111 75:0.157895 76:0.130435 77:0.130435 78:0.130435 79:0.391304 80:0.521739 81:0.130435 82:0.130435 83:0.521739 84:0.173913 85:0.391304 86:0.173913 87:0.391304 88:0.391304 89:0.521739 90:0.565217 91:0.521739 92:0.521739 93:0.541667 94:0.416667 95:0.625 96:0.291667 101:0.140625 102:0.582846 103:0.577697 104:0.51505 105:0.459654 106:0.644841 108:0.5 
0.4820005106508977 1:0.333333 2:0.333333 3:0.444444 4:0.444444 5:0.333333 6:0.333333 7:0.444444 8:0.333333 9:0.222222 14:0.25 15:0.375 18:0.375 19:0.625 20:0.25 21:0.125 22:0.25 23:0.25 24:0.375 25:0.375 26:0.375 27:0.375 28:0.444444 29:0.333333 30:0.888889 31:0.666667 32:0.111111 35:0.111111 36:0.444444 37:0.444444 38:0.222222 39:0.222222 40:0.111111 41:0.111111 42:0.222222 43:0.222222 44:0.111111 45:0.222222 46:0.333333 47:0.375 48:0.375 49:0.375 50:0.375 51:0.125 53:0.375 54:0.375 56:0.5 57:0.125 58:0.25 59:0.375 60:0.125 65:0.111111 66:0.222222 67:0.777778 68:0.555556 69:0.444444 72:0.444444 73:0.111111 74:0.111111 75:0.157895 76:0.130435 77:0.130435 78:0.130435 79:0.391304 80:0.521739 81:0.130435 82:0.130435 83:0.521739 84:0.173913 85:0.391304 86:0.26087 87:0.478261 88:0.391304 89:0.521739 90:0.521739 91:0.521739 92:0.521739 93:0.541667 94:0.416667 95:0.625 96:0.208333 101:0.15625 102:0.481481 103:0.482633 104:0.428094 105:0.384726 106:0.613095 108:0.25 
1.356136015622595 1:0.555556 2:0.777778 3:0.555556 4:0.555556 5:0.555556 6:0.777778 7:0.777778 8:0.777778 9:0.888889 10:0.857143 11:0.375 12:0.25 13:0.25 14:0.25 15:0.25 16:0.25 18:0.25 20:1 21:1 22:1 23:1 24:1 25:1 26:1 27:0.25 28:0.333333 29:0.222222 30:0.888889 31:0.777778 32:0.888889 33:0.222222 34:0.444444 35:0.888889 38:1 39:1 40:1 41:1 42:1 43:1 44:1 45:1 46:0.777778 47:0.5 49:0.125 50:0.125 51:0.125 52:0.125 53:0.375 54:0.375 55:0.375 56:0.375 57:0.5 58:0.875 59:0.875 60:0.625 61:0.5 62:0.5 63:0.5 64:0.125 65:0.222222 66:0.333333 67:0.888889 68:0.555556 69:0.888889 70:0.333333 71:0.111111 72:0.666667 75:0.421053 76:0.521739 77:0.391304 78:0.391304 79:0.391304 80:0.391304 81:0.478261 82:0.130435 83:0.478261 84:0.130435 85:0.869565 86:1 87:1 88:0.913043 89:0.869565 90:0.869565 91:0.869565 92:0.391304 93:0.416667 94:0.291667 95:0.666667 96:0.375 97:0.666667 98:0.291667 99:0.541667 100:0.666667 101:0.171875 102:0.642495 103:0.664717 104:0.693311 105:0.735735 106:0.677976 108:0.5 109:0.75 110:1 
1.330373683645589 1:0.222222 2:0.222222 3:0.111111 4:0.777778 5:0.666667 6:0.888889 7:0.111111 8:0.333333 9:0.333333 10:0.428571 11:1 12:0.5 15:0.25 16:0.5 17:0.25 18:0.125 19:0.625 20:0.125 21:0.875 22:0.25 23:0.375 24:0.25 25:0.25 27:0.25 28:0.111111 29:0.222222 30:0.111111 31:1 32:1 33:1 34:1 35:0.444444 36:0.333333 37:0.333333 38:0.333333 39:0.333333 40:0.444444 41:0.555556 42:0.777778 43:0.888889 44:0.444444 45:0.222222 46:0.222222 47:0.25 48:0.75 49:0.75 50:0.375 51:0.375 52:0.125 53:0.5 54:0.125 55:0.25 56:0.5 57:0.25 58:0.875 59:0.125 61:0.125 62:0.125 63:0.375 64:0.125 65:0.444444 66:0.333333 67:0.444444 68:0.555556 69:0.666667 70:0.555556 71:0.555556 72:0.111111 73:0.222222 74:0.444444 75:0.736842 76:0.956522 77:0.0869565 78:0.130435 79:0.130435 80:0.391304 82:0.391304 83:0.26087 84:0.173913 85:0.26087 86:0.652174 87:0.391304 88:0.521739 89:0.391304 90:0.391304 91:0.130435 92:0.391304 93:0.166667 94:0.291667 95:0.166667 96:0.875 97:0.916667 98:0.875 99:0.875 100:1 101:0.21875 102:0.624756 103:0.61883 104:0.646321 105:0.637608 106:0.59127 107:0.333333 108:0.5 109:0.25 
1.360618751720788 1:1 2:1 3:1 4:1 5:0.888889 6:0.888889 7:0.333333 8:0.333333 9:0.333333 10:0.428571 12:0.5 13:0.25 14:0.375 15:0.25 16:0.125 17:0.375 18:1 19:1 20:1 21:1 22:1 23:1 24:1 25:1 26:1 27:0.375 28:0.222222 29:0.222222 30:0.111111 31:0.444444 32:0.777778 33:0.222222 34:0.444444 35:0.888889 36:0.666667 38:0.555556 39:0.777778 40:0.555556 41:0.888889 42:0.555556 43:0.888889 44:0.444444 45:0.222222 46:0.222222 48:0.375 49:0.625 50:0.125 52:0.125 53:0.25 55:0.875 56:0.5 57:0.5 58:0.875 59:0.75 60:0.5 61:0.875 62:0.75 63:0.875 65:0.333333 66:0.333333 67:0.444444 68:0.111111 69:1 70:0.333333 71:0.111111 72:0.888889 73:0.666667 75:0.631579 76:0.130435 77:0.0434783 78:0.391304 79:0.521739 80:0.391304 81:0.26087 82:0.521739 83:1 84:0.869565 85:0.869565 86:1 87:0.956522 88:0.869565 89:1 90:0.956522 91:1 92:0.521739 93:0.291667 94:0.291667 95:0.166667 96:0.541667 97:0.791667 98:0.291667 99:0.541667 100:1 101:0.25 102:0.571735 103:0.569104 104:0.600836 105:0.656052 106:0.714087 107:0.166667 108:1 
0.580811687010051 1:0.333333 2:0.888889 3:0.444444 4:0.444444 5:0.333333 6:0.333333 7:0.444444 8:0.333333 9:0.222222 14:0.25 15:0.375 18:0.375 19:0.375 20:0.25 21:0.125 22:0.75 23:0.75 24:0.5 25:0.375 26:0.375 27:0.375 28:0.444444 29:0.333333 30:0.222222 31:0.222222 32:0.111111 35:0.111111 36:0.444444 37:0.444444 38:0.222222 39:0.666667 40:0.333333 41:0.111111 42:0.222222 43:0.222222 44:0.111111 45:0.444444 46:0.333333 47:0.375 48:0.375 49:0.375 50:0.375 51:0.375 53:0.375 54:0.375 57:0.125 58:0.25 59:0.5 60:0.875 61:0.5 65:0.111111 66:0.222222 67:0.333333 68:0.333333 69:0.444444 72:0.444444 73:0.111111 74:0.111111 75:0.157895 76:0.130435 77:0.130435 78:0.130435 79:0.478261 80:0.521739 81:0.130435 82:0.130435 83:0.521739 84:0.521739 85:0.391304 86:0.26087 87:0.347826 88:0.478261 90:0.521739 91:0.521739 92:0.521739 93:0.541667 94:0.416667 95:0.291667 96:0.291667 101:0.15625 102:0.551657 103:0.561243 104:0.498328 105:0.525937 106:0.585317 
0.8558211737281094 1:0.333333 2:0.333333 3:0.444444 4:0.444444 5:0.888889 6:0.333333 7:0.444444 8:0.333333 9:0.222222 14:0.25 15:0.375 18:0.375 19:0.375 20:0.25 21:0.125 22:0.75 23:0.75 24:0.5 25:0.375 26:0.375 27:0.375 28:0.444444 29:0.333333 30:0.222222 31:0.222222 32:0.111111 35:0.111111 36:0.444444 37:0.444444 38:0.222222 39:0.222222 40:0.333333 41:0.111111 42:0.666667 43:0.222222 44:0.111111 45:0.444444 46:0.333333 47:0.375 48:0.375 49:0.375 50:0.375 51:0.375 53:0.375 54:0.375 57:0.125 58:0.25 59:0.5 60:0.875 61:0.5 65:0.111111 66:0.222222 67:0.333333 68:0.333333 69:0.444444 72:0.444444 73:0.111111 74:0.111111 75:0.157895 76:0.130435 77:0.130435 78:0.130435 79:0.478261 80:0.521739 81:0.130435 82:0.130435 83:0.521739 84:0.521739 85:0.391304 86:0.26087 87:0.347826 88:0.478261 90:0.521739 91:0.521739 92:0.521739 93:0.541667 94:0.416667 95:0.291667 96:0.291667 101:0.15625 102:0.551657 103:0.561243 104:0.540134 105:0.538905 106:0.585317 
